nep4 2 Si Ge 
cutoff 6 4 96 28
n_max 8 8
basis_size 8 8
l_max 4 2 0
ANN 80 0
 -1.7676353e-01
  4.3557110e-01
  1.1682094e-01
 -1.1693151e+00
 -5.7209039e-01
 -1.8487489e-03
 -5.8095795e-01
  3.2634724e-02
 -3.6230460e-01
  1.3275990e+00
  7.2654545e-01
 -9.3737498e-02
 -3.9188042e-01
 -1.9088374e-02
 -1.4187278e-01
 -8.9144342e-02
  1.0202791e-01
  1.4340280e-01
  4.6661368e-01
  3.1283146e-01
  2.3305421e-01
 -3.1296599e-01
 -1.0496858e-01
 -2.7656360e+00
  7.6857984e-02
  9.5636912e-02
 -2.3664212e-02
  1.6557561e-01
 -3.8443178e-02
 -3.0247906e-01
 -2.5394201e-01
 -3.0201843e-01
 -7.1554321e-01
  2.9863626e-01
  2.9914799e-01
 -3.6692014e-01
  2.0895147e-01
 -1.8647557e-01
  1.4369394e-01
 -4.8401240e-01
 -3.8607603e-01
  2.0650430e-01
  1.0274358e+00
  1.2601653e-01
  1.4070427e-01
 -5.5428827e-01
  6.6221091e-03
  1.0290313e+00
  4.2752600e-01
 -1.0112499e+00
  1.1961786e+00
  1.4249042e-01
 -7.6995231e-02
  2.5773042e-01
  2.6816905e-01
 -1.0201185e+00
 -1.6745166e+00
 -1.0979141e+00
  1.8348740e+00
  2.0690889e+00
 -3.0464455e-01
 -8.8440269e-01
  2.2375934e-01
  6.4709276e-01
  1.0330606e-01
  1.0789802e-02
  1.1720505e+00
  2.1438536e-01
 -3.1335768e-01
  3.3589926e-01
  1.3601740e-01
  3.2012808e-01
 -4.0972853e-01
  1.1980300e-01
 -1.6788211e-01
  1.8238565e-01
 -1.1932957e+00
  1.0499400e-01
 -1.7127905e+00
 -5.7577115e-01
  1.4972945e-01
 -1.7340247e-02
 -5.8673345e-02
  2.7607858e+00
  6.4622350e-02
  4.8504063e-01
 -1.4083983e-01
 -5.7567950e-02
 -6.0857628e-02
 -4.9549726e-01
 -1.5584689e-01
 -7.7663326e-01
 -4.4199240e-01
  1.0298659e+00
 -6.4849824e-01
  7.2102413e-02
  5.5381888e-01
  2.7267238e-01
  1.0228502e+00
  1.1043879e-01
  1.3994682e-01
 -4.8166120e-01
  5.0188649e-01
  3.0984117e-02
 -1.3516469e+00
 -7.2627461e-01
 -1.0887995e+00
  4.9491090e-01
  1.1471938e-01
  9.8435476e-02
 -2.7547428e-02
  7.9233134e-03
  1.0023149e+00
  1.7258416e-01
 -6.9299620e-01
 -1.8903397e-01
 -6.0920450e-03
 -2.5110918e-01
 -2.3110795e-01
 -2.2380006e-01
 -2.4349797e-01
  3.3406061e-01
  7.1829426e-01
 -6.7750913e-01
  9.7070557e-01
  6.7795539e-01
  2.2397182e+00
 -4.6834868e-01
 -1.5508257e-01
 -3.7635837e-02
  1.9651921e-01
 -3.2422736e-01
 -2.8248915e-01
 -5.9739244e-01
  7.4329041e-03
 -1.0621678e+00
  3.8614810e-01
  1.2667829e+00
  1.3406144e-02
  3.7591255e-01
  5.4996318e-01
  7.0177406e-01
  5.3467804e-01
  6.1551031e-02
  2.1391876e-01
 -2.0149055e-01
  1.8623365e-02
 -4.1374883e-01
  4.3133651e-03
 -4.8999622e-01
 -1.1078482e-01
  1.1550203e-01
  2.5248018e-01
  1.7401531e-01
  1.6366784e-01
  6.3281484e-02
 -8.5897535e-01
  8.4222782e-01
  4.6360724e-02
  5.4557160e-02
  5.4140532e-01
  3.4509756e-02
 -3.1539041e-01
  7.9774255e-01
 -1.1630445e+00
  2.0212593e+00
  1.2602895e+00
  1.3947050e-01
  2.1672451e+00
  6.2960935e-01
  4.0812823e-01
 -5.4385650e-01
  2.0993878e-01
 -2.9392216e+00
 -2.4646153e-01
 -9.1142707e-02
  2.2928381e-01
 -4.7344819e-01
 -2.2662805e-01
  1.0180210e+00
  4.8835686e-01
 -4.4209968e-02
  7.6579911e-01
 -4.6886432e-01
 -8.0956799e-01
 -1.0867397e-01
 -5.5312800e-01
  3.3294216e-01
  5.3171221e-02
  8.0536306e-01
 -1.2638617e-01
  1.2983688e+00
 -4.0770143e-01
 -5.5916101e-01
  5.6639552e-01
  6.8690431e-01
 -2.1825741e-01
  2.0464633e-01
 -9.7691977e-01
  2.3670772e-01
  2.8715679e-01
 -1.4648031e-01
  6.1944115e-01
 -5.8667320e-01
 -6.0475731e-01
  1.5540846e-01
 -2.5210286e-02
 -4.4421515e-01
  2.4697280e-01
 -4.3606567e-01
  1.0453951e-01
  6.6812789e-01
  4.3585736e-01
  1.0973432e-01
 -4.4741392e-02
  4.5039597e-01
  1.4979845e-02
 -1.0474336e+00
 -1.3296551e-01
 -5.2064961e-01
 -1.2230599e+00
  7.6683652e-01
 -2.8459392e+00
 -7.9049253e-01
 -8.7747909e-02
  5.9845740e-01
 -1.4799236e+00
 -8.0764160e-02
  1.8996681e-01
  4.6271914e-01
  2.0117126e-01
  2.6561987e-01
 -1.8018113e-01
 -5.5610377e-01
 -1.3289627e+00
  4.7119774e-02
  2.3843101e-01
  4.3301070e-01
  5.2224410e-01
  2.1693179e-01
 -8.1826106e-02
  6.1994012e-02
  1.0487369e+00
  8.8364646e-02
  3.9320326e-01
 -3.4764311e+00
  9.5216274e-02
 -1.6702178e+00
 -7.0207644e-01
 -1.3216385e+00
  7.0279762e-02
 -1.1979293e+00
 -7.4299151e-01
 -4.7246373e-01
 -1.1146610e+00
 -3.5731193e-01
  1.9402266e+00
  5.7088114e-02
 -2.0122372e-02
  5.8599758e-01
  1.0123440e+00
  2.3291844e-01
 -1.0034574e+00
  5.6175286e-01
  5.5950820e-01
 -1.0697626e-01
 -1.4733429e-01
 -9.8060086e-02
  1.3719733e-01
  1.6946128e-01
  1.5092437e-01
 -1.0875772e-01
  9.5384553e-02
 -8.9475222e-02
 -2.0261574e-01
 -5.4499060e-01
 -3.7364635e-01
 -1.1651464e-01
 -1.6918728e-01
  3.9463311e-01
 -7.9430223e-02
  5.3384465e-01
 -3.2623282e-01
 -4.4028252e-01
  1.8011230e-01
 -4.4348497e-02
  4.0545791e-01
  2.8857023e-01
 -3.3064553e-01
  7.2847478e-02
  1.4461896e-01
  8.0653460e-04
  4.2608678e-01
  1.2836300e-02
 -3.9481834e-01
  4.5157441e-01
  5.9236985e-01
 -9.4662987e-02
 -4.0172467e-01
  1.0664258e-01
  6.5262651e-01
  2.2261260e-01
  1.7351058e-01
  3.5491228e-01
 -1.7528345e-01
  6.0168505e-02
 -6.9450460e-02
 -4.6797041e-02
  1.2082541e-01
  4.7305065e-01
 -1.0864640e-01
  9.7023064e-01
  4.5677692e-02
  1.6522994e+00
 -5.7084388e-01
 -1.1094726e+00
 -5.6755930e-01
  2.3199797e-01
  3.3386058e-01
 -1.1265153e+00
 -5.9920120e-01
  1.0776126e-01
 -2.5085869e+00
  1.5063049e-01
 -1.7845107e-02
 -3.8215327e-01
 -2.3993240e-01
 -1.0057615e-01
 -6.9518691e-01
 -5.3966671e-01
 -9.7655457e-01
  2.7315804e-01
  8.4579676e-01
  6.4416118e-02
 -4.4680424e-02
  1.2457749e-01
  1.9780633e-01
  2.9048166e-01
  9.6767873e-02
 -2.8802794e-01
 -3.2205129e-01
  2.4698927e-01
 -1.2259509e-01
 -3.3594240e-02
 -9.0062112e-01
  4.0616278e-02
  2.1361901e-01
  2.0174287e-02
  1.9639630e-02
  1.6537863e-01
  1.4333503e+00
 -3.0194241e-01
 -1.9284293e-01
 -4.4133648e-01
  6.8401974e-01
 -9.2878684e-02
 -2.1963120e-01
  1.1337305e+00
  3.9245448e-01
  1.1439466e+00
  3.8087159e-02
 -3.8020292e-01
 -3.8751982e-02
 -5.3286720e-02
  8.6181402e-01
 -3.3446017e-01
 -8.6910588e-01
  4.3798962e-01
 -4.0640873e-01
 -2.6132613e-01
  4.4411927e-01
  4.7396132e-01
 -2.5410831e-01
 -9.6264817e-02
  8.5469514e-02
  1.3000906e-02
 -2.1333698e-02
 -9.9558425e-01
  1.4825781e-01
  7.3395357e-03
 -3.3385938e-01
  3.7632534e-01
 -2.8066227e-01
  2.4122699e-01
  3.1263757e-01
  8.4645593e-01
  1.9812593e-02
 -4.3149631e-02
 -1.3667227e-01
  5.2424639e-01
  4.0405256e-01
 -2.7657998e-01
 -8.7351745e-01
 -1.0978238e-01
 -5.2462071e-01
 -1.1958888e-01
 -2.8773081e-02
  6.5403678e-03
 -7.7745323e-03
  2.4398176e-02
 -8.9983627e-02
 -3.1618938e-01
  1.2093199e-01
  2.4205190e-01
 -3.7712544e-01
  4.4803765e-02
  7.7800572e-01
 -3.7331897e-01
  2.5210789e-01
  3.3627663e-02
 -3.6069813e-01
 -3.1656525e-01
  1.0801814e-01
 -5.8906370e-01
 -9.6283898e-02
  3.8005179e-01
 -1.2492900e+00
  3.3961847e-01
 -6.9224709e-03
 -2.2250669e-01
 -1.4137962e+00
  5.9500337e-01
 -1.7617418e-01
  3.1499848e-01
 -2.2291097e-01
  5.3061688e-01
 -8.6229585e-02
 -4.6219587e-01
 -2.1647179e-01
 -1.4897580e-01
  1.0590383e+00
 -6.0456242e-02
 -1.0343218e+00
 -5.6043837e-02
  2.5939542e-01
 -9.3335325e-01
  1.8820668e+00
  6.6588163e-01
  5.7376844e-01
  1.5560731e+00
  5.0816089e-01
 -9.5574516e-01
 -9.6253002e-01
  5.6573305e-02
 -1.5407684e-01
  7.8814572e-01
  6.0231831e-02
 -5.8249438e-01
 -1.3266472e+00
 -4.2696825e-01
  2.6471084e-01
 -6.3697028e-01
 -7.6677710e-02
  5.6532726e-02
 -8.4942885e-02
  5.0119784e-02
 -4.2821728e-02
 -3.3166224e-01
 -3.8003916e-01
  6.0776019e-01
  1.7583233e-01
  4.5037887e-01
  3.1214666e-01
  6.1478525e-01
 -7.3619887e-02
 -4.8330900e-01
 -3.8807493e-02
  3.1245244e-01
  2.5467196e-01
 -3.8090289e-01
  7.2390921e-02
  1.2644972e-01
 -2.9831651e-01
  3.6130139e-01
  2.2366174e-01
  2.9866992e-02
  9.1346562e-01
 -2.6248923e-01
 -2.4960212e-01
 -4.2515415e-01
 -3.0879492e-02
 -5.8561519e-02
  6.7034680e-01
 -9.9422109e-01
 -9.6468762e-02
  3.7704188e-01
 -1.6258588e+00
  1.8549602e-01
  3.5728431e-01
 -1.0018629e-02
 -1.1841448e-01
  2.8188440e-01
 -1.7241423e-01
 -2.7984959e-01
 -6.9277894e-01
 -2.0541821e-02
 -5.3448458e-03
  1.0277653e-01
 -5.8360104e-02
  8.9472550e-01
  5.2121934e-02
 -4.0438619e-02
  4.4732308e-01
 -1.4999429e+00
  2.4602431e-01
 -1.2515599e-01
  4.1785869e-01
 -2.2040026e-01
 -1.8539624e-01
 -6.4586622e-01
 -6.1106414e-01
  1.3791771e-01
 -2.8504282e-01
 -1.6874929e-01
  1.8807241e-01
 -5.5746812e-01
 -1.1075275e+00
 -1.6971712e-01
  3.8136649e-01
 -6.1284482e-01
 -1.3108987e-01
 -8.0208061e-03
 -4.6063703e-01
 -3.0157581e-01
  1.7697163e-01
  3.6714172e-01
  6.9736563e-02
  1.7008875e-01
 -1.5590663e-01
  1.9887513e-02
  4.4042818e-02
  2.9103899e-01
 -6.9495682e-03
 -3.5001166e-02
  8.5169923e-01
 -9.2358005e-01
 -1.9486235e-01
  1.2062284e-01
  3.6086595e-01
 -8.8555127e-02
  1.6724767e-01
  2.9712385e-01
  6.1539882e-01
 -2.5673563e+00
 -7.2772181e-01
  1.8048500e-01
  7.8862363e-01
 -1.0736281e+00
 -3.3099720e+00
  3.1157115e-01
  2.7116140e-02
  4.2074955e-01
 -5.2586794e-01
 -9.6869677e-01
 -4.6896747e-01
 -3.3498791e-01
  3.4901133e-01
  3.4391788e-01
  1.4349127e+00
 -8.5159138e-02
 -2.8794330e-01
 -3.0485159e-01
  9.6106493e-01
  1.1963318e-01
 -2.6814865e-02
 -2.6103908e-01
 -4.5940447e-01
 -8.6723965e-01
  1.2875360e+00
  2.3355660e-01
 -4.7672980e-02
 -1.5757556e-01
  5.0209159e-01
  2.2803970e-01
 -1.4531200e+00
  3.3996832e-01
  1.3759016e-01
  1.9648264e-01
  8.0666637e-01
  7.5096458e-02
  5.6168526e-01
 -7.8507000e-01
 -1.2515521e+00
 -8.8405110e-02
  1.2100602e+00
 -5.6965265e-02
 -3.4357986e-01
 -4.7960170e-02
  6.9152154e-03
  2.9181713e-01
  1.1679016e+00
  1.1637504e-01
 -1.0649731e-01
 -2.7928030e-02
 -1.3903011e+00
  4.4984019e-01
 -1.0982193e+00
 -7.9875386e-01
 -8.4164327e-01
  3.7177110e-01
 -2.3632748e-01
  7.3275054e-01
 -1.4400322e+00
  2.3262148e-01
  5.9788311e-01
  6.5150273e-01
 -8.3026868e-01
  2.2106001e-01
  4.5257512e-02
  1.8893620e-01
 -3.5872364e-01
  1.1732579e-02
 -1.3957949e-01
  3.4365892e-01
  5.4752862e-01
  1.1601382e-01
 -6.1648500e-01
  4.0220150e-01
  2.3418839e+00
  2.2634593e-01
  3.3049774e-01
  2.6729250e-01
 -3.9957649e-01
 -3.3817589e-01
 -2.1317449e-01
 -4.9009117e-01
  5.7738636e-02
 -5.7706040e-01
  7.3256949e-03
  4.8939613e-01
 -8.8411354e-02
 -6.2064648e-01
  1.3458118e-01
 -3.1042609e-01
  7.7905238e-01
  4.5094317e-01
 -5.2673429e-01
  5.6404132e-01
 -1.4891258e-01
  3.6303085e-01
 -5.7664853e-01
  3.7541413e-01
  3.9188293e-01
 -2.1530840e-01
  5.5108690e-01
  1.3350804e-01
 -1.7730556e-01
 -5.1955003e-01
 -1.2221202e-01
 -7.3456258e-02
  5.0727427e-01
 -4.0857914e-01
 -7.7250153e-02
  1.9675104e-01
 -3.1389090e-01
 -7.4905103e-01
  1.3278577e-01
  2.0771210e+00
 -1.1709559e-01
 -3.2723477e-01
  5.4676697e-02
 -1.5705052e-01
  7.1567613e-01
  7.9097563e-01
 -4.1078377e-01
  5.8432448e-01
  5.7481444e-01
 -6.7961089e-02
 -9.8341204e-02
  9.3328565e-02
 -1.9501951e-01
 -1.0140710e+00
  7.9719990e-02
 -2.3690596e-01
  1.6624081e-01
 -6.5768880e-01
  1.1375600e+00
 -1.7389114e-01
  5.8613551e-01
  3.6313763e-01
 -9.8638147e-01
 -2.4153707e+00
  6.9008417e-02
  4.4181970e-01
 -4.7422576e-01
  5.4965854e-01
  4.9624088e-01
 -8.6644657e-02
  6.2034927e-02
  2.0367646e-01
 -1.2217818e+00
  4.6559121e-02
 -2.0640112e-02
 -2.0767142e-01
  1.0026249e+00
  5.2799106e-01
 -6.0172912e-02
 -1.1102210e-01
  5.3914856e-02
 -3.3479467e-01
 -1.7408425e-01
  2.4333656e-01
  7.2415978e-01
 -9.0886146e-01
 -1.7461976e-01
  2.0515110e+00
 -7.4980414e-01
 -1.0972874e+00
 -2.8929111e-01
 -1.6136057e+00
  5.9595741e-03
  8.4566437e-02
 -2.2823350e-01
 -1.2434652e+00
 -6.0070735e-01
  5.2703518e-01
  3.8045990e-01
 -6.1398733e-01
 -6.7406332e-01
 -5.6994760e-01
 -6.9652355e-01
 -9.8495764e-01
 -1.7094607e+00
  3.7923634e-01
  5.1010078e-01
 -1.4697913e+00
  8.1628209e-01
  2.2648012e-02
 -4.4929004e-01
 -1.3498309e-01
  6.1646438e-01
  1.1485150e+00
 -2.8052464e-01
 -1.6410286e-02
 -3.5549334e-01
  1.5622512e-01
  5.5495477e-01
 -1.1704774e-01
 -1.2181290e-02
  6.9689763e-01
 -2.7084375e-02
 -8.6817294e-01
  3.6179537e-01
  1.0309733e-01
  2.0577855e-01
 -1.1632090e+00
 -9.0794951e-01
  2.6022312e-01
  1.6026321e-01
 -8.2358547e-02
  1.8251965e-02
  5.3828992e-03
  1.7233650e-01
 -6.1661094e-01
  2.5619814e-01
  3.3526376e-01
 -4.3890505e+00
 -2.7183464e-01
  1.4522700e-01
  3.1354889e-02
  7.1460470e-03
 -1.1527371e+00
 -4.6657748e+00
 -8.1576478e-01
  9.2499055e-02
 -1.0301732e+00
  4.9294594e-01
 -8.8540369e-01
 -1.8944047e-01
  6.9947094e-02
 -1.1619639e-01
  2.4323066e-01
 -1.4513155e+00
  2.0158768e+00
 -1.0783807e+00
 -8.5613981e-02
 -2.5907881e+00
  9.5370181e-02
 -3.7977743e-01
  5.7899427e-02
  2.0937288e+00
  7.4324340e-01
  3.1269449e-01
  1.2649357e-01
  6.1450237e-01
 -1.0658089e+00
  7.6766717e-01
 -1.6001979e+00
  1.0217019e+00
 -2.6325825e-01
  6.7109382e-01
  1.5098288e+00
 -6.0465612e-02
 -9.0723211e-01
  5.1506293e-01
  3.9428544e-01
  1.3288143e-01
  1.7567013e-01
 -1.8018778e-01
  4.0080187e-01
 -5.5926013e-01
 -7.2117895e-01
  3.8373262e-01
 -6.0614664e-02
  2.1222799e+00
  3.0070773e-01
  1.5645827e-01
 -2.7603114e-01
 -2.1319778e-01
 -1.2505394e-01
 -8.3357674e-01
  3.2967275e-01
  6.3672164e-03
  4.0161374e-01
  1.2435278e-01
  1.4806262e+00
 -7.9095894e-01
  1.1744218e-01
 -2.3148120e-03
 -2.9228157e-01
  1.2724155e-01
 -9.2913821e-02
 -3.0686849e-01
 -5.1200634e-01
  2.1961087e-01
 -4.2535725e-01
 -3.9049831e-01
 -2.1913075e-01
 -1.1172878e+00
  3.0143782e-01
 -1.0584260e-01
 -2.5725681e-01
 -3.3799899e-01
 -5.8973479e-01
  2.0260280e-01
  2.3998715e-02
  6.7277059e-02
 -2.0923193e-01
  4.9278679e-01
  4.5746714e-02
 -8.4688716e-02
  2.3738018e-01
  7.6334238e-02
  1.8589531e-01
  9.5041764e-01
 -3.5456456e-03
  1.6228029e-01
 -8.1247054e-02
 -8.6994314e-01
 -9.8153196e-02
  6.9632655e-01
  5.4195553e-01
 -1.8970695e-01
  2.3139548e-01
 -2.2441623e-01
 -1.0509520e+00
  7.0320290e-01
  4.2360675e-01
  2.5449803e-01
  2.1854397e-02
 -1.6656937e-01
  1.6109377e+00
  1.3334628e+00
  8.8561571e-01
  2.7849257e-01
 -3.1086013e-01
 -1.7842214e-01
  7.0056516e-01
  4.6363962e-01
 -1.3969080e-01
 -2.2209938e-01
  2.6246750e-01
  3.5776073e-01
 -3.3395389e-01
  9.4616339e-02
  1.4157397e+00
 -3.6671755e-01
 -3.6310926e-01
 -1.5775800e-01
  1.2052684e-01
 -3.9508024e-01
  1.0905648e-04
  4.6445027e-01
 -3.0044121e-01
 -6.1189145e-01
 -4.1563308e-01
  3.7297256e-02
 -1.7196195e-01
 -1.8510155e-01
 -8.9980692e-01
 -1.4768982e-01
 -3.2793927e-01
  4.1588761e-02
  2.9062289e-01
 -6.6158464e-03
  1.5296032e-01
 -1.5632717e-01
 -6.7480654e-01
  2.2667497e-01
 -2.0309849e-01
 -4.3245149e-01
 -7.6509053e-01
  4.4939606e-03
 -5.6391541e-02
 -9.1628128e-01
  1.3589424e-01
  1.0589228e-01
  2.8162906e-01
  1.8890341e-01
 -3.5166960e-02
 -1.2339778e-01
  4.0514261e-01
  8.8366711e-01
  7.8150856e-01
 -2.7886422e-02
  7.7061915e-01
  2.8432384e-01
 -6.4988256e-01
 -1.6046451e+00
  2.0179927e-01
 -1.3498861e-01
  8.3762670e-01
 -1.0023274e-01
 -5.6327188e-01
  7.5923812e-01
 -3.5122722e-01
  6.4430766e-02
 -6.6478842e-01
 -2.0917676e-01
  8.7221515e-01
  8.0353123e-01
  2.5939935e-01
  6.2231589e-02
  3.0748078e-01
 -5.3132463e-02
 -2.1642883e-01
 -3.6379361e-01
  3.0446911e-01
  1.5682682e-01
 -3.1241545e-01
 -5.9473562e-01
 -4.0992117e-01
 -9.8191954e-02
  1.2501772e-02
 -1.0559037e+00
 -2.8692043e-01
 -1.6089393e-02
  1.3081942e+00
 -4.8141938e-01
  1.2155961e-01
  2.2393586e-01
  3.9945118e-02
  2.8032109e-01
 -1.1329467e+00
  5.7989472e-01
  5.1419842e-01
  3.2645765e-01
 -5.9378999e-01
  2.1599559e-01
 -4.3409657e-01
 -2.8836697e-02
 -5.2403903e-01
  1.5894890e-01
 -3.0083629e-01
  2.4459822e-02
 -2.2826672e-01
  2.2235958e-01
  7.3884016e-01
  2.2614264e-01
 -3.8933259e-01
  5.2256681e-02
  1.5919389e-01
 -8.3563083e-01
 -4.1246107e-01
 -2.6005048e-01
 -1.6406084e+00
  7.0598650e-01
 -3.2874593e-01
  3.3719113e-01
 -2.5394008e+00
  5.1076063e-03
  7.3705423e-01
  3.1941646e-01
  1.6438047e+00
 -7.3934168e-01
 -8.0315566e-01
 -1.6516629e-01
  2.8969437e-01
 -5.6027424e-02
  1.2979282e+00
  4.6631943e-02
 -7.0249513e-02
 -5.5772934e-02
 -8.8393345e-02
 -1.2622118e-01
  1.0350527e+00
 -1.6217355e-01
 -1.1774683e+00
  1.6582888e+00
 -6.9692723e-02
  4.3837994e-01
 -9.2522189e-02
  5.5669969e-01
  3.7420383e-01
  4.3667644e-01
  2.1942890e-01
  3.4113315e-01
  1.1014563e+00
 -5.9142923e-01
 -4.0672693e-01
  7.8967541e-02
 -1.0754887e+00
  2.3358110e-01
 -1.2947756e+00
  1.8691085e-01
  3.3175591e-01
  1.3262700e+00
 -2.4197935e-01
 -4.1120753e-01
 -1.2849982e-01
 -2.1793301e+00
  3.6812222e-01
 -3.4147868e-01
  5.7639676e-01
 -6.8363413e-02
 -8.9180574e-02
 -2.0749903e+00
  9.1662848e-01
  5.9454632e-01
  6.5926188e-01
  1.0708706e+00
 -1.3717223e+00
 -6.5453380e-01
  5.3032488e-02
 -8.7694198e-01
 -5.0010574e-01
 -4.2663944e-01
  3.3825344e-01
 -6.6499308e-02
  3.3474812e-01
 -1.5657331e+00
  1.8384483e+00
  4.9466935e-01
 -7.2200203e-01
  1.9812481e-01
  4.1269356e-01
  4.5003358e-01
  1.3850716e+00
 -3.0408934e-01
  6.6589230e-01
 -8.1543082e-01
 -9.4777144e-02
 -1.4336950e-01
  6.1305392e-01
  4.4615164e-01
  6.1966652e-01
 -4.4865897e-01
 -4.2881751e-01
  1.2462974e-01
  1.0482166e+00
  6.1866564e-01
 -1.0742433e-01
  2.7870461e-01
  5.1983643e-01
  3.7355456e-01
 -3.5901335e-01
  1.1398358e+00
  6.1030626e-01
  6.1325175e-01
 -3.8954988e-01
  7.5752527e-01
  8.9458394e-01
 -4.5963365e-01
  2.9528708e+00
 -3.6975864e-01
 -2.1388175e-01
  4.3551755e-01
  9.3676203e-01
 -6.3180481e-03
 -2.1767427e-01
  1.6911038e+00
 -2.6301324e+00
 -2.9690906e-02
 -2.9727903e-01
 -1.1502686e+00
  3.1581616e+00
  1.7512974e-01
 -4.1551337e-01
  5.5281248e+00
 -1.5300075e+00
 -4.7076106e-01
 -9.0691638e-01
 -6.8978441e-01
 -1.5717096e+00
 -6.9663846e-01
 -4.7625440e-01
 -1.9315049e-01
  4.3708962e-01
 -1.2509683e-01
  6.7602170e-01
 -1.0589775e+00
 -1.5119943e-02
 -1.8540025e-01
  2.6696545e-01
 -2.5609564e-02
  5.7392377e-02
 -3.0028805e-01
  6.7757450e-02
 -6.0479420e-01
 -3.1461344e+00
 -3.9915669e-01
 -3.4571308e-01
 -2.4044371e-01
 -6.5521377e-01
 -1.0740757e+00
  3.3413652e-01
  1.2821146e+00
  2.2477594e-01
 -6.1995167e-01
  5.9305087e-02
  1.3065286e+00
 -2.0081942e-01
  9.6786815e-01
  1.3130200e-01
  1.5380551e-03
  1.0504746e+00
  2.7776331e-01
 -4.6909186e-01
  2.0242217e-01
  4.0589780e-02
  5.7444125e-01
  5.9485283e-02
  1.4269219e-01
  1.3880274e-01
 -3.0151386e+00
 -1.5619440e+00
 -1.7523248e-01
  7.6407301e-01
  2.9103720e-01
  9.0706879e-01
 -1.1724153e+00
  1.7993407e+00
 -3.7728024e+00
  2.2632250e-01
  1.6043843e-01
 -2.7784629e+00
 -2.3594381e-01
 -5.0183862e-01
 -2.2104704e-01
  3.8723567e-01
 -8.3796851e-02
  3.5103092e-01
 -2.4806933e-02
  1.9451313e-01
 -1.5049822e+00
  1.3307731e-01
  1.0343898e-01
  1.7639790e-01
  3.5990795e-01
 -2.4067657e-01
  1.2353426e+00
 -9.1504805e-02
  8.0452377e-01
  1.8322825e+00
 -6.2215912e-01
  3.4259975e-01
 -2.1830590e-01
  2.0035043e-02
  3.0510160e-01
  4.9344218e-01
  7.9940569e-01
  2.3590423e-01
 -2.1445635e-01
  3.1385466e-01
 -2.9875481e-01
  8.0093987e-02
 -3.4786209e-02
  3.9851990e-01
  1.8830420e+00
 -1.2366486e-01
 -2.5803199e-01
 -2.0316970e-01
 -1.3790104e-01
  5.9765879e-02
 -9.7323513e-01
 -3.0478325e-01
 -1.3690666e+00
 -3.0994868e-01
  4.7272456e-01
  7.6947564e-01
  1.5567037e-01
 -1.1519924e+00
  3.7681761e-01
 -1.5303178e+00
  6.5949219e-01
  4.1070879e-01
 -1.8207225e-01
 -2.5501484e-01
 -2.8389695e-01
  4.4047496e-01
 -1.4036202e+00
  5.9072059e-01
  1.5266241e+00
  1.4242247e+00
  2.2804987e+00
  1.4770962e+00
 -1.2816498e-01
 -4.6068642e-02
 -8.6329244e-02
  1.4372267e+00
 -6.5390176e-01
  1.1555008e+00
  6.5900505e-01
 -4.3588030e-01
  1.4764422e+00
  3.0714052e+00
 -3.0237576e-02
  8.0256842e-02
 -2.6291108e-02
 -1.0839992e+00
  1.9495037e-01
 -7.5363553e-01
  2.9907289e+00
  1.3323966e+00
 -6.3485259e-01
 -2.8364915e-01
  1.1819906e+00
  1.3021673e+00
  5.0139385e-01
 -1.7921475e-01
  1.4302683e-01
 -9.5663399e-01
  1.3101209e+00
 -2.1396390e-01
  1.9976354e-01
 -1.2901793e-01
  2.7636662e-01
 -3.5205117e-01
 -3.2580507e-01
  7.3929012e-02
  2.9960340e-01
 -4.3491694e-01
  1.4301952e+00
 -2.6825247e+00
 -1.6417624e+00
 -2.8847589e+00
 -1.1320584e-04
 -1.9938225e+00
  5.2243072e-01
 -2.4954782e-01
 -7.1018612e-01
  1.4649592e-01
  1.5548435e-01
  2.5379128e+00
 -9.5440704e-01
  7.9291815e-01
  1.8856284e-01
  1.6040246e-01
 -8.8287604e-01
 -1.5381627e-01
 -1.5066001e-01
 -3.8674554e-01
 -1.3115019e+00
 -1.0518470e+00
  6.3516907e-02
 -4.2320392e-01
  6.9455391e-01
 -1.9332595e-01
  4.2707229e-01
  1.3424871e+00
  9.6661091e-01
  3.8814321e+00
 -1.6186467e-01
 -3.1464478e-01
  4.5526227e-01
 -5.7629836e-01
 -5.4830458e-02
 -3.9587135e+00
 -1.2568747e-02
  9.1130987e-02
  2.8928797e+00
 -2.6226768e-01
 -7.5175393e-01
  3.3100942e-01
  1.3206068e-01
  1.6841055e-01
 -8.0815494e-01
  2.3091094e-01
 -8.7675259e-02
 -3.0112720e+00
 -5.5497909e-01
 -3.4031522e-01
  4.3832654e-01
  3.3332053e-01
 -8.2760930e-02
  8.7252975e-02
  1.1697148e+00
 -2.1199207e-01
 -1.4495176e+00
  1.0061274e+00
 -5.7795554e-01
 -2.5512335e-01
 -2.9341593e-01
 -2.4865937e-01
  1.4290330e-01
  3.1014118e-01
  1.7285684e-01
 -2.0658371e-01
 -6.0323067e-02
  1.0457508e-01
  1.4300548e-01
  1.6250111e-01
  9.9503614e-02
  6.0864550e-01
  2.6890960e-01
  2.5249168e-01
 -1.7066123e+00
  5.9871835e-01
 -9.7353566e-01
  3.1373303e-02
  3.3836117e-01
 -8.7737930e-01
  1.0768276e-01
  2.0804519e-02
 -3.6933059e-01
 -9.9018380e-02
  1.0054864e+00
 -1.6319901e-01
  7.8750998e-01
  1.1865285e-01
  2.9086944e-01
 -7.9933040e-02
  2.1266155e-03
  3.8523385e-01
 -3.1658452e-02
 -4.7192124e-01
  8.8531125e-01
 -1.0953692e-02
  2.6202318e-01
 -3.9042601e-01
 -6.6135406e-01
 -5.0057185e-01
  2.3660704e-02
  3.6015216e-01
 -5.0697807e-02
  6.0430128e-02
  5.0896460e-01
 -1.5831132e-01
 -1.9605984e-01
 -6.1229265e-01
 -8.7284261e-01
  7.5967693e-01
  3.5973081e-01
 -7.5767773e-01
  1.8147233e+00
 -5.4507786e-01
  4.4728526e-01
 -3.8367528e-01
 -1.7368479e-01
 -4.1167587e-01
 -4.4991711e-01
 -1.5899602e+00
 -6.8870910e-02
  4.3799201e-01
  4.5816347e-01
  2.7497196e-01
  5.5015415e-01
 -5.3147709e-01
 -5.8485955e-01
  2.2240682e+00
  3.8389664e-02
 -3.8738060e-01
  5.6136683e-02
  1.2108710e-01
 -1.8363054e+00
 -6.5529263e-03
 -1.2282639e-02
 -2.5968485e-02
  4.2855707e-01
  5.8357432e-02
 -1.9547339e-01
  2.9384587e-03
  4.9968609e-01
  3.2086942e-01
  1.5962341e-01
  8.6311114e-01
 -1.5448226e-01
  1.3727564e-01
 -5.7781208e-01
  6.6263908e-01
  3.7324378e-01
 -6.5580302e-01
 -1.9460590e-01
 -4.6976227e-01
 -1.2557403e+00
 -1.7486570e-02
 -2.4745941e-01
  2.8643447e-01
  4.0417308e-01
  9.2892498e-03
  1.7677338e-01
  3.1533957e-01
  3.3999342e-01
 -3.1253687e-01
 -4.3343472e-01
 -3.0878183e-01
 -2.2127888e+00
 -2.2156425e-03
  1.0902066e+00
  7.9434201e-02
 -1.0011885e+00
 -5.7787144e-01
 -5.4655778e-01
  2.5623038e-01
 -7.5363046e-01
  2.9453531e-01
 -1.9347738e-01
  1.4193796e-01
 -5.8071882e-02
 -2.7867433e-01
  3.1051624e-01
  2.3049121e-01
  1.5670288e-01
  4.4701319e-02
 -1.1189804e-01
  1.9841014e-01
  3.4548640e-02
  3.3956745e-01
 -1.5237553e-01
 -1.8862022e-01
 -2.0389001e-01
 -2.9581692e+00
  1.0468543e-01
 -9.9069960e-03
  1.8148292e-02
  1.5722737e-01
  5.1358932e-01
  5.5514872e-02
 -4.1526622e-01
  8.5052353e-01
  2.8832409e-01
  3.9258099e-01
 -3.7329268e-02
  1.1773102e-01
  3.8621220e-01
 -5.8290161e-02
 -1.8404679e-01
 -6.6404110e-01
  7.7988493e-01
 -7.2024785e-02
  2.2076745e-01
 -4.9997151e-02
 -2.6377931e-01
  5.1427191e-01
  7.5167453e-01
 -6.1421615e-01
 -1.0980642e+00
 -7.9200125e-01
  1.4161363e+00
 -1.2966801e+00
  3.3419549e-01
 -2.6995741e-02
  3.8560426e+00
  3.5239275e+00
  1.5477827e+00
  3.5145890e-02
  3.4132233e+00
  9.1398323e-01
 -7.3856014e-01
 -1.2352539e-01
 -6.1724085e-01
 -2.4642085e-01
  4.6765316e-02
  1.0549817e-01
  6.0529703e-01
 -1.7350620e-01
 -1.6686536e-01
  1.3885471e-01
  1.3364026e-01
  2.5647998e-01
  4.5866632e-01
  1.4485331e-01
 -3.9561614e-01
 -3.7713322e-01
 -7.2487193e-01
 -1.1701874e+00
 -4.1626233e-01
  2.0722259e-02
  5.6206685e-01
  1.2391237e+00
  2.4158598e-01
 -2.5162056e-01
  1.4107539e-01
 -8.4120411e-01
  1.1742517e-01
  1.4909408e+00
 -7.0126794e-02
 -6.6073053e-02
 -4.2495570e-01
 -1.9914277e-01
  3.3680317e-01
 -1.9199213e-01
 -2.8788722e-01
 -1.2222224e+00
  2.8529050e-02
  7.4787065e-02
  3.5200387e-01
  1.0210879e-01
  3.2649344e-01
  5.9172904e-01
  1.6623677e-01
  1.2954801e-01
 -4.6530503e-01
  4.8860586e-01
 -1.5572204e-01
  2.9568721e-02
 -1.5267983e-01
  1.4036606e-01
 -5.9167504e-01
 -6.0599917e-01
 -6.0669258e-02
  1.3410050e-01
  5.0306392e-01
 -2.3456211e-01
 -1.7290053e-01
 -2.6211122e-01
 -4.2082973e-02
 -8.5923320e-04
  1.6005057e-01
 -1.5544357e+00
  3.0333126e-01
 -1.4664532e-01
 -1.6487709e-01
 -2.4125665e-02
 -5.4312956e-01
 -7.4177855e-01
  1.3108721e-01
  1.7965641e-02
 -1.9457088e-01
 -4.8695818e-01
  1.5587734e-01
  1.4478114e+00
 -1.8420991e-01
  1.1353892e+00
  7.9096347e-02
  6.4504333e-02
 -2.6975402e-01
  3.3688456e-01
 -8.3041988e-02
  8.4833753e-01
 -4.8954052e-01
 -7.9871394e-02
 -1.1331946e-01
  1.0669722e-01
 -3.7605000e-01
 -2.0744689e-02
  7.0258856e-01
 -4.6890658e-01
 -1.9899932e-01
 -9.5770039e-02
  3.1481183e-01
 -1.4872578e-01
 -3.4261408e-01
 -1.5412672e-01
  2.3183072e-01
  7.0871580e-01
 -2.6237500e+00
  2.1124508e+00
 -2.1170399e+00
 -2.2299340e-01
 -6.6968493e-02
 -2.8428179e-01
 -5.3260927e+00
 -1.8645022e+00
 -3.2949245e+00
 -2.4376123e+00
  7.4417138e-01
 -2.6114838e+00
  4.5129466e-01
  4.7568029e-01
 -2.3260802e-01
  7.6889750e-03
  2.1929612e+00
  1.2211578e+00
 -6.2372905e-01
  9.2188306e-02
 -2.2735748e+00
  8.0963945e-01
  1.9632557e-01
 -1.9897772e-01
  6.1250317e-01
 -3.7999075e-02
  1.2223970e-01
  7.6118124e-01
  4.2132190e-01
 -9.2713010e-01
 -5.6201380e-01
 -4.2575082e-01
 -2.9942289e-01
  2.6023215e-01
 -1.3808819e+00
  8.2752161e-02
  4.2270377e-02
  3.5758954e-01
  7.1127802e-02
  5.1106840e-01
 -1.2095224e+00
  2.0411640e-01
  3.3666259e-01
  6.6200525e-01
  2.5217166e-02
  2.2190065e+00
  2.3356493e-01
  7.8522772e-02
  2.7349812e-01
 -1.6019657e-01
 -7.6647371e-01
  6.2265325e-01
  1.0267059e+00
 -4.4174218e-01
  4.6675128e-01
 -3.6791451e-02
  8.2952138e-03
 -4.6977872e-01
  9.1170117e-02
 -3.7832546e-01
 -1.0153934e+00
 -9.1888875e-02
  6.2608294e-02
  5.9639788e-01
  3.5290623e-01
 -5.2018166e-01
  6.1590725e-01
  1.2478586e-01
  5.6796491e-01
 -2.2161424e-02
 -5.8625020e-02
 -1.9322744e-01
  5.6894547e-01
 -3.1121752e-01
  1.2950599e-01
 -1.4544287e-01
 -9.5163612e-03
  8.8749081e-01
 -8.5627240e-01
 -9.9668294e-01
 -7.0051625e-02
 -4.8029467e-01
 -4.0198123e-01
 -2.2226462e-01
 -3.6406481e-01
 -2.9180655e-01
 -2.3422109e-01
 -2.9868031e-02
 -2.6111990e-01
  7.9615575e-01
  8.5748792e-01
 -1.2051939e-01
  7.8541070e-01
 -5.5255640e-01
 -1.0530585e+00
 -5.0223219e-01
  5.5427548e-02
  1.5595518e-01
  2.3691668e-01
  3.9764602e-02
  5.8350861e-02
 -3.5895163e-01
  1.3703287e+00
 -5.8969301e-01
 -2.7962014e-01
 -3.5131532e-01
  4.7442463e-01
  1.4845413e-01
 -5.3595823e-01
  3.4826708e-01
 -8.5020477e-01
  4.5996559e-01
  1.0829369e-01
 -7.5453259e-02
 -5.1476139e-01
 -3.2790199e-01
 -3.0356783e-01
 -3.6535028e-02
 -2.6475978e-01
 -2.9014346e-01
 -7.1717888e-02
  1.0245647e+00
 -1.3398321e-01
 -6.5978324e-01
 -3.5414729e-01
  7.0842236e-01
 -4.5970505e-01
 -7.7284211e-01
 -1.3644817e-01
  1.9291285e-01
 -4.4962966e-01
  3.9466293e+00
 -1.5414821e-01
 -3.3884481e-01
  2.9507905e-01
 -8.2409583e-02
  3.1471047e-01
 -1.2880084e-01
 -5.8513373e-01
  3.4964979e-02
 -2.5697005e-01
 -1.0360689e-01
  1.5359572e-01
 -3.2554242e-01
  5.5551904e-01
 -3.1752995e-01
  1.0776742e-01
  3.4003142e-01
  1.3845965e-01
  6.8090242e-01
 -1.2054394e-01
 -2.6320539e+00
  1.7535898e-01
  6.5164253e-02
 -7.6074129e-01
  4.0476128e-02
  2.5095755e-01
  1.0982190e-01
 -1.7889208e-01
 -2.2328256e-01
 -7.5514740e-01
  4.8210335e-01
  1.8017918e+00
 -1.2624979e+00
  2.1823001e-01
  1.3624989e+00
 -1.4650868e+00
  1.5735717e+00
 -1.1233511e+00
 -5.2342021e-01
  8.3308309e-02
  9.2629141e-01
  5.1063311e-01
 -2.4090277e-01
 -7.3029715e-01
 -3.9586827e-01
  5.5430088e-02
  7.1669236e-02
  5.9811515e-01
 -1.4351139e+00
  1.9766591e+00
 -1.4911631e-01
 -1.2698770e+00
  7.6631173e-02
  2.1600226e-01
  4.1527569e-02
 -1.0932881e-01
  1.2916911e+00
 -8.5651493e-01
 -5.4649490e-01
  1.1550952e+00
  4.0945339e+00
  9.9321800e-01
  2.2509304e-01
  3.9131078e-01
  1.2141713e+00
  4.4088498e-01
 -4.2414343e-01
  3.0027083e-01
 -1.6201846e-01
 -9.9226034e-01
  6.4848250e-01
 -7.1032625e-01
  6.3051954e-02
 -2.8361844e-02
 -1.6775206e-01
 -6.8617982e-01
  1.6867045e-01
  1.8640211e-02
 -4.6128210e-01
 -6.0582280e-01
 -1.4515724e+00
  5.1260716e-01
 -7.6568311e-01
 -1.3633537e+00
 -1.4279583e-01
 -4.2326003e-01
  1.6516849e-01
 -1.5899237e+00
  9.8417771e-01
  4.1846967e-01
  2.6995413e+00
  2.0945671e+00
  1.2309903e+00
  2.9670854e+00
 -1.7511953e-01
  6.5336931e-01
 -3.2937076e+00
  5.0959915e-01
  1.4110030e-01
  3.4114000e-01
  9.3861602e-02
 -3.2877222e-01
  3.9362502e-01
  7.5482559e-01
 -3.3747181e-02
 -3.0389202e+00
  2.1072340e-01
  1.2211403e-01
  9.2267498e-02
  6.9799578e-01
  1.8011378e-01
 -9.9207330e-01
 -3.9264253e-01
  1.2629138e-01
  2.6019869e+00
  6.3357389e-01
  6.4337748e-01
  7.5065054e-02
 -1.0884738e+00
 -6.1851223e-03
  1.1791350e-01
 -1.4215243e-01
  2.3559753e-03
  9.2418182e-01
  8.2047164e-01
  1.7383683e-01
 -3.8172174e-01
  3.8480815e-02
  2.5372779e-02
 -1.2970099e+00
 -1.0287705e-01
 -1.0070332e-01
 -1.4290521e+00
  4.3771011e-01
  9.2720664e-01
 -3.7747470e-01
 -1.0141280e-02
 -1.0978974e-01
  2.1165933e-01
 -1.4448885e+00
  2.0683847e-01
 -2.6795760e-01
 -2.9632470e-01
  1.0768882e-02
 -2.5178772e-01
  1.9219755e-01
 -7.0286654e-02
 -7.2556302e-02
 -9.0132281e-02
 -1.5721726e-01
 -3.3304043e-02
 -4.4726202e-01
 -6.5391868e-01
  1.7275718e-01
 -2.2728658e-01
  5.8436561e-01
  1.2192721e-01
  1.4256078e-02
  1.4343596e-01
  2.5278633e-02
 -2.3706909e-02
  9.0438116e-01
 -3.4877163e-01
 -2.0383120e+00
  1.5283872e-01
 -1.2297279e-01
 -8.5031271e-02
  3.6685166e-01
  9.7267821e-02
 -2.0506726e-01
  2.3298948e-01
 -1.7627529e+00
  1.2027912e+00
 -4.7742841e-03
  2.5976780e-01
  8.8074178e-02
 -9.0572722e-02
  1.2417144e-01
 -9.4139236e-01
 -4.3823209e-02
 -9.0531260e-03
  4.7580776e-01
 -6.3040203e-01
 -6.2210774e-01
 -2.4644990e-01
  4.7394559e-01
  5.7426822e-01
  1.4634666e-01
 -1.6398509e-01
 -3.5526186e-01
  3.6540818e-01
 -1.6891249e+00
 -4.2628253e-01
  2.1204789e-01
 -2.7027228e-01
  2.0005363e-01
  5.2073449e-01
 -3.2024577e-01
 -5.9263939e-01
  2.3474053e-01
 -1.9429557e-01
 -5.3267580e-02
 -4.1429913e-01
 -5.2297848e-01
 -1.6928791e-01
 -4.3371044e-02
  7.3235542e-01
 -3.3402812e-01
  1.9376392e-02
  1.5162985e-01
  3.9684737e-01
  8.1474207e-02
  8.4505361e-01
 -1.9059127e-02
  6.0170174e-02
 -3.8327560e-01
 -2.2353472e-01
  4.4438255e-01
 -9.4239265e-02
 -2.0662286e+00
 -1.1797203e+00
 -2.5638904e-02
 -4.4375341e-02
 -3.3238502e+00
  4.0129894e-01
  3.9250505e-01
  1.2620127e+00
 -6.3865647e-02
  2.1151844e-01
 -9.1351219e-02
 -9.3774569e-01
  3.7229979e-01
  1.0431059e-01
  3.1343486e-02
 -3.4208074e-02
  2.3411106e-01
 -6.4049135e-03
 -4.3648738e-01
 -2.8122583e-01
 -4.5570418e-01
 -8.9405447e-02
 -6.8853952e-02
 -2.3919241e-01
 -9.7655945e-02
  6.8809754e-01
  1.1119597e-01
 -8.5309945e-02
 -5.6947827e-02
  3.8945299e-01
 -3.2951403e-01
  4.8385214e-02
 -1.3382770e+00
  1.7720872e+00
 -2.1974656e-01
  4.2727098e-01
 -9.9492693e-01
 -5.1700886e-02
  6.8425447e-02
  7.1933663e-01
  1.0043044e-01
 -4.8499697e-01
 -1.6277240e-01
  4.3869895e-01
 -1.1501177e-01
  5.3923434e-01
  8.7640083e-01
  2.1821621e-01
  1.0167146e+00
  3.5254547e-01
 -6.2165505e-01
 -1.6328390e-01
  4.9141846e-03
 -7.5322740e-02
 -1.1593737e-01
  7.5412577e-01
  1.2081683e-01
  4.9233992e-02
  1.7287085e-02
  1.4345387e-01
 -1.0142097e+00
 -3.5216656e-02
  5.7596684e-01
  7.4291599e-01
  3.6796406e-01
  1.6028686e-01
  5.7114966e-02
 -9.6638054e-01
  2.1320105e-01
  2.3947129e-01
  4.1487902e-01
  1.1191292e+00
 -1.1742765e-01
  2.8997836e-01
  2.5615138e-01
  3.3287387e-02
 -1.5602158e-01
 -4.5866808e-01
 -6.3010192e-01
 -7.6863371e-02
  4.1329194e-02
 -7.2938639e-01
  1.1369492e+00
 -9.6550986e-02
 -6.4487177e-01
  1.0716265e+00
  3.0466849e-01
 -3.2414082e-02
  3.7854671e-01
 -9.9213219e-01
  3.7356567e-01
 -6.6694893e-02
 -4.6446306e-01
 -1.3553539e-01
  6.8120122e-02
 -8.2491821e-01
  4.5526615e-01
 -1.2722458e-01
 -6.3014135e-02
 -8.3984780e-01
 -1.7297691e-01
 -2.3513660e-01
  4.5934862e-01
  2.4488309e-01
  4.7211137e-02
  3.5981449e-01
 -1.0354381e+00
 -1.1878304e-01
 -1.4494146e-01
 -9.1170371e-03
 -1.0838335e-01
 -2.1195281e-01
 -5.6054586e-01
 -3.4611493e-01
  1.2975453e+00
 -1.3849439e-01
  2.8629649e-01
  3.0260587e-01
 -4.5763560e-02
 -8.0009484e-01
  9.1103144e-02
 -2.7727917e-01
  1.8117721e-01
 -2.1898573e-02
 -5.0675696e-01
 -9.6090007e-01
  5.1485705e-01
  1.2400626e-01
 -9.2901535e-02
  3.7325287e-01
 -6.2513018e-01
 -3.4263402e-01
  5.1745242e-01
 -4.4091102e-01
 -8.8191825e-01
 -1.9629765e-01
 -4.7445711e-01
 -2.8056669e-01
 -2.8366947e-01
  1.4700742e-01
  7.8322726e-01
  2.5077590e-01
 -3.2473075e-01
  1.6652482e-02
  1.5925270e-01
  5.5209629e-02
  1.2686484e+00
 -1.1583222e-01
 -3.3729178e-01
 -2.7338597e-01
 -7.6100916e-01
  2.1824419e-01
 -1.0424491e+00
  1.7044672e-01
 -4.4528548e-02
 -9.1735899e-01
 -6.3601434e-01
  6.1237663e-02
  4.7593880e-02
  1.3292851e-01
  6.6267395e-01
 -6.1486375e-01
 -2.9639885e-01
  3.8872251e-01
 -4.4865793e-01
  8.3571328e-03
 -3.3718759e-01
 -5.4156285e-04
 -9.9839360e-01
  3.1157922e-02
  6.1176527e-01
  3.2966059e-01
  1.2950833e-01
 -4.2980185e-01
  8.5924906e-01
  2.5200022e-02
  1.1477778e-01
  1.0918767e+00
 -2.7332984e-02
  7.2787851e-02
  1.5612969e-01
  6.6233665e-02
 -6.2315655e-01
  4.7089964e-01
 -1.2025676e-01
 -2.9016776e+00
 -1.2494597e-01
  6.3246632e-01
  4.6031147e-01
  4.3325010e-01
  5.3084207e-01
 -8.2539791e-01
 -4.2431492e-01
  8.9340770e-01
  4.4201110e-02
 -3.9619935e-01
 -2.8172058e-01
  2.5323603e-01
  3.7213281e-01
 -6.8076544e-02
  8.6558409e-02
 -4.6394470e-01
 -2.5053450e-01
  1.1133903e-01
 -4.7423463e-02
 -4.4394445e-01
 -1.6418183e-01
  1.9088943e-01
  3.0798486e-01
 -2.8185937e-01
 -2.0624575e-01
 -2.0382039e-01
 -1.0776562e-01
  1.5445222e+00
 -6.5868789e-01
  3.7873980e-01
 -6.9946639e-02
  8.3480552e-02
  5.3378695e-01
  8.1494570e-02
  1.9573863e+00
  8.2318389e-01
  4.5223007e-01
  3.2526118e-01
  2.2339313e+00
  8.7702133e-02
 -6.7648537e-02
 -1.0219905e+00
 -2.4187291e-01
 -2.4843480e-01
  1.9119585e-01
  1.4642906e-01
  1.9786397e-01
  9.0391636e-02
  4.9892983e-01
  7.0077640e-01
 -6.2910783e-01
  2.7636310e-01
 -6.2753773e-01
  6.3605034e-01
  1.6979450e-02
  9.0924877e-01
  3.1510726e-01
  8.9146279e-02
 -4.9280666e-02
  2.0870927e-01
 -2.9670426e-01
 -8.8755530e-01
 -2.1430147e+00
 -4.6619415e-01
 -2.7288308e-02
  6.5863073e-01
  4.0230730e-01
  5.3990901e-01
 -1.2304457e-01
 -2.5180487e-02
 -1.1215976e-01
 -1.7859399e-01
 -2.8025347e-01
  1.8961172e-01
 -1.2212234e-02
  4.3919209e-02
 -2.7228117e-01
  1.7381054e-01
  7.5874466e-01
  2.4467008e-01
  3.0287689e-01
  3.8478240e-01
  6.6732377e-02
 -1.3328357e-02
 -5.3055547e-03
 -2.0327823e-01
  8.6439904e-03
 -8.0078208e-01
 -9.4729763e-01
 -2.5616711e-01
  2.8301027e-01
  5.5346918e-01
  2.5214388e-03
  3.1651309e-01
 -4.7562290e-02
 -5.5133294e-02
  2.5848195e-01
 -1.5373467e-01
  6.4811170e-02
  2.3720618e-02
  1.1787078e-01
 -1.9642536e-01
  9.8463960e-02
 -2.2080985e-01
  1.4337978e-01
  3.6514472e-02
 -6.7530817e-01
  6.0463053e-01
  4.3679917e-01
  3.2742387e-01
  3.1419984e-01
 -7.0336634e-01
 -1.3686000e+00
  5.1306874e-01
  1.9511145e-01
 -3.0861823e-02
 -7.9561815e-02
 -1.0541167e+00
 -1.4123909e+00
 -1.4246236e+00
  4.3876120e-01
  1.5155438e+00
  5.6399643e-01
 -6.4928383e-01
  2.4956459e-01
  6.5133208e-01
 -2.9882362e-01
 -6.0386890e-01
 -2.5666955e-01
  1.4563166e-01
 -3.5692018e-01
  3.3235181e-02
 -2.8922030e-01
 -8.6424816e-03
  2.7050424e-01
 -2.8004608e-01
 -9.5622396e-01
 -1.0648515e-01
 -4.5708546e-01
  1.1137366e+00
  6.7046642e-01
 -3.0202434e+00
  3.4300289e-01
 -7.1814619e-02
  4.6540447e-02
  4.7279456e-01
  7.2779346e-01
  9.0423681e-02
 -3.1123117e-01
 -4.6695760e-01
 -9.2957556e-01
 -6.9934839e-01
  3.0146012e-02
 -6.5140593e-01
 -2.3391628e-01
 -5.6900960e-01
 -4.4648963e-01
 -4.2106017e-01
  1.4738549e-01
  1.9398949e-01
  2.8167637e-02
 -2.6057643e-01
  3.3434224e-01
  8.6520456e-02
  1.6302632e-01
  5.3141743e-01
  5.4552984e-01
 -3.3434406e-02
  7.6260698e-01
 -3.0285099e+00
  9.1561979e-01
 -1.5397416e+00
  3.1977355e+00
 -2.3321238e+00
  2.1705861e+00
  4.5956358e-01
 -4.9480453e+00
  3.7498623e-01
 -1.4735743e-01
  2.2311224e-01
 -1.8118842e+00
  5.3914871e-02
  5.7682109e-01
  1.7133067e+00
  2.0803242e+00
 -1.7750653e+00
  1.1190211e+00
 -1.1920709e-01
 -6.8166953e-01
 -7.3625201e-01
 -9.8866940e-01
  7.2252959e-01
 -1.4174520e+00
  1.0210676e+00
 -3.2016543e-01
 -3.5287654e+00
 -5.2275574e-01
 -4.2340744e-02
 -7.7068168e-01
 -4.4331422e-01
 -1.7116960e-02
 -1.6672261e+00
 -2.1607819e-01
 -4.5674235e-02
 -1.3306205e+00
 -1.4135385e-01
 -7.6878481e-03
 -3.2986704e-01
 -1.5794086e-01
 -8.6936280e-02
 -7.7484459e-01
 -1.1150936e-01
 -4.6836831e-02
 -2.4887411e-01
  7.9818261e-01
  3.4425536e-01
  2.4386583e-01
 -4.7592932e-01
  2.7169347e-01
  5.9451061e-01
  9.1036253e-02
  2.0851562e+00
  5.0690043e-01
 -2.6087233e-01
 -1.7125213e+00
  1.7032382e-01
  1.0884734e-01
 -1.3634698e+00
  1.1237783e+00
 -4.9662527e-01
  1.4506960e-01
  6.8725085e-01
  1.4827125e-01
  1.8488240e-01
 -1.8375954e-01
  1.8869646e-01
 -1.2757657e-01
 -3.1989712e-01
 -5.8980364e-01
  2.1604000e-02
  7.8013867e-01
 -3.2320416e-01
 -1.9515336e-02
 -1.4535588e-01
  6.7079097e-01
 -1.2217691e-01
  9.0807247e-01
 -2.0216706e-01
  2.0317145e-01
 -3.1626288e-02
  3.6970798e-02
  1.0438679e-01
 -5.8788770e-01
  4.3291891e-01
  2.2121638e-01
  6.9161369e-03
 -1.2608525e+00
 -4.4932112e-02
  9.3493676e-01
 -1.7812153e-02
 -5.6196529e-01
  2.3857267e+00
  8.6568123e-01
  1.6245290e+00
  9.5648301e-01
 -4.1616861e-02
  1.8397580e-01
  3.1494778e-01
  3.9549538e-01
  1.2908351e+00
  2.2058520e-01
  4.6019709e-01
 -1.0544064e+00
 -2.9570407e-01
  2.6544180e+00
 -9.2686601e-02
 -6.5520322e-01
 -1.0126967e+00
 -5.5344275e-04
 -2.7055023e+00
  3.0342555e-02
  1.2567610e+00
  7.9955781e-01
  2.4809900e-01
 -5.8662093e-01
  4.0282333e-01
  7.8974724e-02
 -5.0612405e-02
 -2.0816430e-01
 -4.3839639e-01
  4.6531597e-01
  1.5998000e-01
 -9.0027875e-01
  5.0691557e-01
 -8.8692331e-01
 -1.4990073e+00
 -6.5667145e-02
 -6.0214508e-01
  5.2743912e-01
 -8.2987860e-02
  2.3037027e-01
 -5.5998904e-01
 -1.2380922e-01
 -2.0328118e-01
 -6.9441996e+00
 -3.3759111e-01
 -1.4817232e+00
 -4.2472169e-01
  2.4970876e-01
  3.2621369e-01
  6.5019715e-01
  6.3429043e-02
 -4.5608711e-01
  1.8541789e-01
 -1.4871933e-01
  5.1194124e-02
 -1.1737160e-01
 -5.1122510e-01
  1.4677656e+00
 -3.9575553e-01
 -3.6271346e-01
  1.1686414e-01
 -1.1306857e+00
  2.8239480e-01
  1.0261056e-01
  5.5390054e-01
  1.3176905e-01
  1.8503529e-01
  3.1771999e-02
 -1.7280709e+00
 -2.2213526e+00
  2.8400738e+00
 -2.9791978e-01
 -1.0824848e+00
 -8.9279693e-01
 -1.3906990e+00
 -7.0481271e-02
 -3.2717732e-01
  1.4197499e-01
 -6.0417175e-01
 -6.9461860e-02
 -1.0126535e+00
 -7.8615373e-01
  1.4008591e-03
 -1.5375510e-01
 -1.1915513e+00
  1.4411637e+00
 -6.3385099e-02
 -3.0752011e-02
 -3.3734044e-01
 -1.3376714e+00
 -1.6745429e-01
 -9.5561200e-01
 -8.7535113e-01
  4.3086916e-02
 -2.6735556e-01
 -2.3942471e-01
  6.2601900e-01
  2.8244212e-01
  5.7205629e-01
 -2.1945433e-01
  3.5145113e-01
  1.1941385e-01
 -2.7057302e-01
  8.3006747e-02
  1.0771556e+00
  1.1750417e+00
  1.9470845e-01
 -5.0102693e-01
 -4.8344910e-01
  4.2064467e-01
 -1.5566256e-02
 -1.9378717e+00
 -6.6717662e-02
 -7.8694738e-02
  1.8691196e-01
  1.2018102e+00
  8.7292957e-01
  3.2267466e-01
 -5.9027350e-01
 -1.4883853e-01
 -1.8855462e-02
  7.3144686e-01
 -1.9550815e+00
  1.1900663e+00
  8.7597793e-01
  2.0661747e+00
  1.3375761e-01
 -1.9262824e+00
 -2.7243702e+00
  1.6803995e-01
  3.6823982e-01
 -1.1810064e-01
  3.0438393e-01
 -1.5598798e-01
 -2.1962975e-01
  5.2324450e-01
 -2.4246605e-02
  1.9995768e+00
  7.3343642e-02
  1.6018663e-02
 -1.4980446e+00
 -3.3671504e-01
  1.2579630e-01
 -1.9673871e-02
  1.5484323e-01
  4.0736288e-01
  6.3117623e-01
  3.2840496e-01
  3.8144153e-01
  1.0929714e-01
 -9.5896684e-02
  1.3693713e-01
 -2.9331028e-01
 -1.3354994e+00
 -1.6109860e-02
  7.6259278e-02
  7.4923974e-01
 -1.3802626e+00
 -1.5195863e-01
  2.3699194e-01
  6.7916997e-02
  4.4000790e-01
 -3.7761876e-01
 -1.0121462e-01
 -1.2620515e-01
 -2.4037272e-01
  8.7361276e-01
  8.9004420e-02
 -2.8717941e-01
  3.8029215e-01
 -1.0080527e+00
  3.4184584e-01
  5.6214249e-01
 -4.0422142e-01
 -2.7888337e-01
  6.6551137e-01
 -3.1531256e-01
  1.1560684e+00
 -7.4123925e-01
 -1.6283573e+00
 -4.8081484e-01
 -2.8702300e-03
  7.1570325e-01
  8.6913005e-02
 -1.0554332e-01
 -6.3195080e-02
  8.1767113e-04
 -2.6725914e+00
 -3.2531074e-01
 -6.1634713e-01
  2.2837007e-01
 -8.2587850e-01
 -2.0169748e-01
  4.2172486e-01
 -2.3343579e-01
 -5.5196995e-01
 -2.0855729e-01
 -8.2932234e-01
  1.1783853e-01
 -9.6803710e-02
 -1.0619126e-01
 -5.4434311e-02
 -1.2525719e-02
  2.7264240e-01
  9.2586219e-02
  1.4040787e+00
 -3.8424239e-01
 -3.0759934e-01
 -6.2396735e-02
 -7.3202893e-02
  1.5145304e+00
  1.5035541e-01
  6.2233245e-01
 -8.0094170e-03
  3.9017564e-01
 -4.2423752e-01
  2.0198099e-01
  1.3865985e-01
 -2.1596912e-01
  2.7927509e-01
  1.6230193e-01
  8.7303180e-01
  7.4225026e-01
 -2.5012314e-01
  1.0869993e-01
 -7.9761997e-02
 -2.9920080e-01
  5.1550247e-02
  1.0587332e+00
 -1.3855528e+00
  1.0517187e+00
  1.1329435e+00
 -3.2659727e-01
 -1.5361394e-01
  6.2707144e-01
 -2.8320196e-01
 -1.0026506e+00
 -6.2927598e-01
  8.7480313e-01
 -5.2691835e-01
 -2.9816946e-01
  3.9048284e-01
 -2.8252205e-01
  4.0507548e-02
  4.7343069e-01
  1.4938635e-01
  1.2910926e+00
  4.0561232e-01
  1.6626149e-01
 -1.1382436e-01
  1.2373694e-01
  9.5951505e-02
 -6.9972269e-02
  4.7825053e-01
  3.0449358e-01
  5.5609417e-01
 -1.8629010e-01
  1.0114760e+00
 -3.6803886e-01
 -3.8627297e-01
 -7.0679784e-02
  1.1279705e-02
  8.6404786e-02
  6.3678026e-02
  1.4661878e+00
  4.4697329e-01
 -2.2286372e-01
  5.0129068e-01
  6.6895127e-02
 -1.1299468e+00
 -9.5508240e-02
  1.7325742e+00
  6.1705983e-01
  2.2350954e-01
  5.9650367e-01
  2.1483457e-01
 -3.8736936e-01
  2.1787862e-01
 -2.1124503e-01
 -2.7052203e-02
 -6.7643350e-01
  9.6141033e-02
  4.7371894e-01
 -3.9079148e-01
  3.2310579e-02
 -1.3832491e-02
 -6.6345090e-01
  1.9611324e-01
 -2.9536361e-01
  1.5372010e-01
  8.3093536e-01
 -8.6055756e-01
 -1.4829303e-01
  4.5576711e+00
  1.2204421e-01
  1.2031040e-01
  2.2075467e-01
 -1.4274424e-01
  1.0392874e+00
 -1.0675873e+00
 -7.4532539e-02
  1.0773242e-01
 -1.4689538e-01
 -2.1509343e-01
  1.0764495e-01
 -6.5613908e-01
 -2.9516733e-01
 -5.0688937e-02
 -7.8019574e-02
 -2.1062027e-01
 -4.1754603e+00
 -7.2658497e-01
 -1.7073329e-01
  1.1678868e-01
  2.8771025e-01
  4.2081869e-01
  5.2455258e-02
 -5.0501615e-01
 -3.4978971e-01
  2.3734201e-01
  4.3045601e-01
 -3.8013840e-01
 -4.3318071e+00
  8.3254701e-01
  5.6152695e-01
 -1.8896392e-01
 -1.3563010e-01
 -1.0020339e+00
  9.3862690e-02
 -5.5291897e-01
 -1.0346634e+00
 -3.5816026e-01
  2.9780957e-01
 -9.7181976e-01
 -3.3023328e-01
  4.3718597e-01
  1.2046267e-02
  1.0383793e-01
 -3.2418516e-01
 -8.1090085e-02
  8.9882594e-01
 -2.5226125e-01
 -9.5615965e-01
 -3.3481747e-01
 -1.1788073e+00
  5.2672732e-01
 -3.4232152e-01
 -1.6083889e-01
 -9.6809886e-02
  2.5593299e-01
  1.9121633e-01
  3.5155527e-02
 -5.9703040e-01
 -3.1105036e-01
  5.3487692e-02
 -2.7614442e-01
 -4.0684548e-01
  6.1319643e-01
 -2.1560397e-03
 -7.3472343e-02
  4.5323274e-01
 -2.4266033e-01
  2.9370150e-01
 -1.8275349e-01
 -4.5043534e-01
 -8.0308639e-02
 -1.2508732e-01
  5.5622816e-01
  5.3367102e-01
  6.0395843e-01
  2.5411686e-01
 -1.8715095e-02
 -1.6732301e-01
  1.8186153e-01
  1.8600385e-01
  4.4463408e-01
 -2.6062369e-01
  7.1236634e-01
 -2.3020983e-02
 -6.3024527e-01
  4.3332041e-03
 -3.6116305e-01
  7.1452004e-03
 -2.4190822e-01
 -6.8561845e-02
 -5.4658368e-02
 -3.6757505e-01
  8.6900219e-02
 -1.0778906e+00
  2.1018443e+00
 -6.8345988e-01
  1.6205540e-01
  7.4441768e-02
  4.7726128e-01
  7.3559165e-01
 -1.8896693e-01
 -1.5882304e+00
 -3.1328835e-02
 -1.0092514e+00
 -2.3719102e-02
  2.5937536e-01
  1.9192490e-01
  9.4372368e-01
  1.0118756e+00
 -5.1597696e-02
 -4.2180437e-01
  3.6920610e-01
  1.4849207e-01
  1.2352356e+00
  4.0409572e-02
 -1.4533611e-01
 -1.9306761e-01
  1.3922441e-01
 -7.8834242e-01
 -9.9621254e-01
 -6.7323312e-02
  5.4175496e-01
 -5.3131557e-01
 -5.3347990e-02
 -3.2012069e-01
 -1.7780320e-01
 -4.3764804e-02
  3.4748551e-01
 -2.0541389e-02
  5.9832233e-01
 -3.0510890e-01
 -9.4655402e-02
 -2.4059428e-01
  2.7209622e-01
  5.1894331e-01
 -6.8505079e-01
 -8.6990899e-01
 -4.8760578e-01
  5.4055744e-01
  4.3086231e-02
 -1.1345935e-01
 -9.2284888e-02
  1.8332795e+00
  6.3508131e-02
  2.4762784e-01
  9.7429357e-02
  4.2111990e-01
  7.0550066e-01
 -6.3586104e-01
  3.1663507e-02
 -4.1412291e-01
  4.4059882e-01
  1.1613379e-01
  6.2684757e-01
  5.9784400e-01
 -1.9843999e-01
  2.6355588e-01
 -3.5159361e-02
 -1.8455833e-02
 -2.6580911e-02
 -4.8483748e+00
  3.2266888e-01
 -1.8875752e-01
 -3.5381515e-02
  7.5691864e-02
  5.7091075e-01
  5.8155906e-01
  1.4672996e-01
 -8.3353348e-02
  4.9416304e-01
  1.4719643e-01
  2.9976742e+00
 -5.7534820e-01
 -3.4296089e-01
  1.0891679e-01
 -6.7317420e-01
 -3.4499779e-01
  5.8864779e-03
  4.3008566e-01
 -1.0679644e-01
 -7.7563393e-01
  4.0225607e-01
  1.2475726e-01
  1.0265986e+00
  1.1502156e-01
  5.1162881e-01
  1.5638717e-01
  2.6070601e-01
 -3.2163370e-01
 -7.8486197e-02
 -2.5574127e-01
  3.6148849e-01
 -3.9807194e-01
  3.8231231e-02
  5.1256485e-02
  7.7795166e-01
  1.0544620e-01
  4.9215037e-01
  1.5233171e-01
 -2.2070879e-02
  5.0535774e-01
  1.1167447e-01
 -4.0724248e-02
 -1.6511630e-01
 -5.4927956e-02
  1.7369909e-02
 -1.1870077e-01
  7.7136469e-01
  1.2340946e+00
 -2.9511333e-01
  2.6819330e-01
 -6.7101628e-01
  4.9856669e-01
  8.7086040e-01
  3.3479607e-01
  4.8511848e-01
  3.0442920e-01
 -3.9737251e-01
  7.8794140e-01
 -3.6447665e-01
 -1.4668362e-01
 -9.7370577e-01
  1.2631141e-02
  6.2593704e-01
  5.6984740e-01
  3.3176497e-01
 -2.8432789e-01
  8.4728740e-02
 -1.7485608e-01
 -5.8395326e-01
  4.3411475e-01
 -1.9175823e-01
 -1.5535498e-02
 -2.8963694e-01
 -6.3554460e-01
 -2.0714337e-01
 -9.8467654e-01
  1.4566202e-01
  2.4843867e-01
 -4.5168939e-01
 -3.7950185e-01
 -5.4057848e-01
  1.2109930e-01
  6.5020092e-02
 -1.1863196e-01
  5.1566392e-01
  1.6357969e-01
  2.6353797e-01
  8.5892722e-02
  8.5856175e-01
 -5.5576378e-01
  1.0897209e-01
  7.2401816e-01
 -3.5982363e-02
  1.9489543e+00
 -4.5300898e-01
 -4.9694985e-02
  3.1336561e-01
  1.4785643e+00
 -1.6715936e-01
 -1.3806929e-01
  2.1561408e-01
 -1.5357870e+00
 -9.1358542e-01
  8.3817863e-01
  1.2038581e-01
  3.5378510e-01
 -2.7286191e-02
  9.8969501e-01
 -1.7241843e-01
  6.5482271e-01
 -1.2030932e-01
  6.5798193e-02
  7.7952510e-01
 -6.2390506e-01
  4.4627145e-02
  3.7890199e-01
  1.3735537e-01
 -1.1409646e-01
  3.4379553e-02
 -3.7250254e-01
  2.3070967e-03
  1.4434390e-01
  4.9197590e-01
  8.6692971e-01
  1.6278985e-01
  1.6739362e-01
 -6.0087088e-02
 -1.1955408e+00
  7.1891934e-02
  1.8701355e-01
  8.1100231e-01
  7.7998728e-02
 -3.3297902e-01
  2.6118034e-01
  6.2693256e-01
 -1.8502112e-01
 -5.9653306e-01
  9.4188195e-01
  1.2010424e-02
  1.3802883e-01
 -4.2528248e-01
  4.1279241e-02
  1.1333691e-01
  4.6171138e-01
 -7.3177606e-01
 -2.6337084e-01
 -3.7322685e-01
 -2.2327371e-02
  3.7806991e-02
 -2.2970261e-01
  3.2713094e+00
 -4.9067116e-01
  1.8297135e+00
  3.0918367e+00
 -1.7223005e+00
  1.5222397e-01
  7.2911185e-01
  5.4416943e-01
 -8.4539914e-01
  9.0623224e-01
  4.0784791e-01
 -2.7653837e-01
 -8.1220314e-02
  1.6335559e-01
 -1.5033845e+00
 -1.4571081e-01
  5.6184754e-02
  4.0387160e-01
  4.1488034e-01
 -1.1625551e-01
 -1.4324927e-01
  3.4249035e-01
 -8.0016899e-01
  3.0432655e-02
  2.6431477e-01
  5.6528598e-01
  6.4248127e-01
  7.5022882e-01
 -1.3127016e-01
 -8.0477583e-01
  1.0604718e+00
 -5.3031462e-01
 -1.3323236e-01
  3.1584060e-01
 -6.1148071e-01
 -2.6902103e-01
 -7.6539606e-02
  8.2761049e-02
 -1.1793612e-01
  1.6447441e-01
 -2.7192011e-01
 -9.8962054e-02
 -1.8666804e+00
 -1.1219284e-01
 -1.5607236e-01
 -5.4282862e-01
 -2.3697954e-02
  1.7074953e-01
  1.8190216e-01
  1.0731963e-01
 -9.4779056e-01
  1.5110208e-01
 -5.8895450e-02
  9.3509525e-01
  1.2085894e-01
 -1.7508906e+00
 -5.6671429e-01
  5.6068814e-01
  3.3843079e-01
 -2.0331381e-01
 -1.9430151e+00
 -5.1711209e-02
 -9.8965093e-02
 -2.8970034e+00
  1.9701172e-02
 -1.9157857e-01
 -1.5018323e-01
 -2.8694861e-02
 -3.0994612e-01
 -5.1267916e-01
  7.5034223e-02
 -4.2996395e-01
 -1.1511173e-01
 -2.6057449e-01
  3.7255546e-01
  2.6789609e-01
 -2.8491345e-01
  9.7401232e-01
  2.6021308e-01
  9.1756129e-01
  1.0017075e-01
 -4.8108026e-03
  4.6139494e-02
 -4.8937023e-01
  1.6074565e-01
 -8.5798699e-01
  2.3198357e+00
  4.9636927e-03
 -1.5076904e-01
  7.2171956e-01
 -7.6600623e-01
 -3.6891855e-02
 -3.5726005e-01
 -4.7622867e-02
  7.6394729e-02
 -6.0548570e-02
  2.1058443e-01
  1.2502749e-01
 -1.6412386e-01
 -7.9294384e-02
 -7.0360422e-01
 -2.5067675e-01
  5.9524860e-02
  1.9513030e-01
  3.9385367e-02
 -3.1452164e-02
  3.1178102e-01
  1.8505786e-01
 -1.1822001e+00
 -7.2845787e-02
  1.2277228e+00
 -3.7982322e-02
 -2.8499949e-01
  1.1851666e+00
 -3.2138383e-01
 -2.8874603e-01
  1.9637622e-01
 -1.8955286e+00
  2.8449503e-01
  4.1411072e-01
 -1.5266225e-01
 -2.1398476e-01
  1.3367723e-01
 -2.3806252e+00
  4.7708726e-01
  1.2111834e-01
  6.3975388e-01
  1.3838860e+00
  6.4631146e-01
  2.1634886e-02
 -3.8602713e-01
 -1.2959629e-01
 -7.0225781e-01
 -3.5389066e-03
  2.0206779e-01
  1.1388975e+00
  5.1322931e-01
 -3.0615512e-02
 -9.4883513e-01
 -3.2706532e-01
 -1.0593802e+00
  4.3762845e-01
  1.9484593e+00
 -4.7983783e-01
  9.9295944e-01
  1.3176948e-01
  4.7302145e-01
 -2.7084711e-01
 -6.5490171e-02
 -3.0351543e-01
 -1.5127878e-01
  2.1707384e-01
  3.8230035e-01
  5.4037493e-01
 -6.5258420e-01
 -2.9057899e-01
  6.3783658e-01
  5.8894111e-03
  2.8176153e-01
  5.7427472e-01
  2.3944381e-01
  3.0790478e-01
 -1.4739479e-01
  2.6941910e-01
 -1.3172020e+00
 -6.8339652e-01
  9.3418479e-02
  2.4382271e-01
 -4.8147905e-01
 -5.0622708e-01
 -3.3425081e-01
  3.9531559e-01
 -2.3978293e-01
 -4.0370989e-01
 -1.0922121e-01
  7.5251803e-02
  1.5212274e-01
 -9.7025849e-02
  3.5405689e-01
 -3.0016366e-01
 -2.4662329e-01
  5.5221879e-01
 -5.2058313e-02
 -6.2807029e-01
  3.0434859e-01
  6.6205807e-02
 -1.6544169e-01
 -1.7086652e-01
 -5.1486391e-01
 -2.0557748e-01
 -7.9147056e-02
  1.3935176e-01
  1.0690990e-01
  4.7461739e-01
  5.9927297e-01
 -2.5707669e+00
 -6.7932829e-02
 -1.4528309e-02
 -4.7321621e-01
 -1.8038522e-01
 -4.8905831e-02
  1.7153959e-01
  7.9378968e-01
  2.4390793e-01
  3.2310665e-01
  1.7251287e-01
 -2.5742451e-02
 -3.7066072e-01
  3.1204936e-01
 -2.0024189e-01
 -7.8270984e-01
  1.9257668e-01
 -3.2892287e-01
  4.5089275e-02
 -1.1906697e-02
  3.7327597e-01
  1.1388031e+00
  2.0609872e+00
  4.9628314e-02
 -9.4766933e-01
  9.6628737e-01
  8.8513154e-01
  6.8747795e-01
 -4.0735230e-01
 -8.9164293e-01
 -1.1475071e-01
 -7.6915568e-01
 -2.9342806e-01
 -1.9912946e-01
 -1.6587696e+00
 -7.2076857e-02
 -4.5100027e-01
 -1.4237189e-01
  1.8132800e-01
 -4.8330984e-01
  8.4265190e-01
  9.2766784e-02
 -2.0033838e-01
  1.1515420e-01
  4.4752833e-01
  1.5524289e-01
  2.7007198e-01
  3.4872895e-01
 -1.4055456e-01
 -1.7326681e-01
  2.5391656e-01
 -6.4451128e-01
 -1.0714552e-01
  8.5215539e-02
  6.0273987e-01
  3.5669732e-01
 -2.1324116e-01
 -3.4256425e-01
 -9.4566393e-01
 -4.8245687e-02
  8.4411317e-01
 -9.1455370e-01
  9.3191576e-01
 -2.3502353e-01
 -1.7947169e-01
 -4.2522374e-01
 -2.4590527e-01
 -3.6552805e-01
  1.8582270e-01
  1.9537044e-01
 -1.4216736e-01
 -3.6071324e-01
  2.5545800e+00
 -2.9567897e-01
 -3.7797764e-01
  1.8334071e-01
  1.2310821e-01
 -1.0248412e+00
 -6.2508121e-02
  7.5726819e-01
  6.4660126e-01
 -6.0630393e-01
 -5.6633931e-01
  1.7060642e+00
 -8.0859798e-01
  2.9892746e-01
 -1.0284138e-01
 -4.0110761e-01
  2.4418062e-01
 -5.7182091e-01
 -1.5209706e+00
 -1.8008256e-01
  1.5627867e-01
  2.1141657e-01
  7.8122310e-02
 -1.3450430e-01
 -1.2666664e+00
 -6.2161469e-01
  6.2656052e-02
  1.4211439e-01
  8.7424493e-01
  6.3062690e-02
 -1.0389264e+00
 -1.8936817e-01
 -2.2963217e-01
  8.0099151e-02
  2.4201459e-01
 -5.6524110e-01
 -6.0897028e-01
 -3.5539243e-01
  1.1639871e-01
  6.8512283e-02
 -1.2725577e-01
 -1.6461954e-01
 -2.8817844e-01
 -1.6488107e-01
  5.1862198e-01
  3.9180762e-01
  1.4644704e+00
  2.5040680e-01
  3.4635189e-01
 -4.2503941e-01
  9.7331822e-01
  1.7612331e-01
 -2.2666322e-01
 -6.8122095e-01
  3.4058883e-03
 -7.0612900e-02
  1.4069782e-01
 -1.0006136e-01
  6.4351583e-01
 -8.6934045e-03
  8.8684380e-02
  5.7918793e-01
 -2.3867147e-01
  5.8930807e-02
  1.9544607e-01
 -7.4820173e-01
 -2.5381002e-01
 -2.0349541e-01
 -6.2559235e-01
  8.1011492e-01
  1.2503763e-01
 -8.9207822e-01
  4.7730967e-01
 -1.4394982e-01
  4.3024760e-01
 -8.2044423e-01
  5.1732910e-01
 -4.8049062e-01
 -1.5450439e-03
 -8.0296028e-01
  4.6651039e-02
  4.0286875e-01
 -1.9166806e-01
  2.2839300e-02
 -4.2218775e-01
 -6.0496676e-01
 -3.5796147e-02
  6.0736614e-01
 -1.3742083e-01
 -3.1535953e-01
 -3.2822430e-01
  1.5687944e-01
  4.6050921e-02
 -1.0773226e+00
  4.9117669e-01
 -5.8446020e-01
  1.7016535e-01
  2.1704562e-02
 -1.8314543e-01
  4.1629878e-01
 -5.5822891e-01
 -1.0791007e-01
  4.5595743e-02
  8.7052442e-02
 -3.4442309e-01
  4.1026164e-02
 -1.8332271e-01
  2.2705568e-01
  3.4416463e-02
 -5.0967062e-01
 -9.3013354e-02
 -1.4603707e-01
 -1.9134003e-01
  1.2853815e-01
  1.0549184e+00
 -9.9153382e-01
  1.8256925e-01
 -3.9603728e-01
 -1.0570866e+00
  7.0057988e-01
  1.6007471e+00
  3.4978244e-01
 -1.7316295e-02
 -3.6650887e-01
  1.1754190e-01
  7.7799338e-01
 -4.9556398e-01
 -1.2353669e-01
  6.3180584e-01
 -1.0150824e+00
  8.8035262e-01
  1.0726376e+00
 -9.2256695e-01
  5.3340267e-02
  9.6282917e-01
 -3.4836049e+00
  6.6856223e-01
 -2.4315873e-02
 -9.5299423e-01
 -2.4149321e-01
 -5.6077516e-01
  3.7833318e-01
  1.7403887e-01
 -4.8840374e-01
  6.1544966e-02
  8.3287901e-01
 -4.8307696e-01
  3.4486592e-01
  9.9678189e-02
  2.5462630e-01
  8.4749520e-02
 -8.4290808e-01
 -4.1828966e-01
  3.8839045e-01
 -2.1438865e-01
  5.2664137e-01
  1.0417464e-01
  6.9841146e-01
  1.6200213e-01
  7.7397114e-01
 -7.2301440e-02
 -7.6281741e-02
 -3.2627612e-02
  3.6235318e-01
 -7.4555826e-01
  1.1149383e+00
  5.6871247e-01
  1.1996956e+00
  1.1227626e-01
 -4.2613217e-01
 -4.3583938e-01
  4.5163801e-01
  2.0377783e-01
  5.1645041e-01
  1.2640753e-01
  1.7450007e+00
  5.1175892e-01
 -6.2861949e-01
 -6.7419159e-01
  7.1069494e-02
 -2.1877010e-01
 -7.1631752e-02
 -7.4407625e-01
 -3.2223654e-01
 -1.0954823e+00
  1.9656076e-01
  4.0268740e-01
  1.1104193e+00
 -1.2881786e-01
  9.5215189e-01
 -5.1874765e-03
  2.6536280e-01
  1.4976783e-01
  2.7678704e-01
 -2.1211122e-01
 -4.0614889e-03
 -2.2292247e-01
 -3.6278573e-01
  7.9890323e-01
 -1.6483283e-01
 -8.5850972e-01
 -1.7284309e-02
 -4.9490079e-01
 -1.7704614e-01
 -2.0856241e-02
 -1.1729396e-01
  9.4112945e-01
 -3.8789131e-02
  5.9833758e-02
  6.5772355e-02
  1.1718606e-01
  1.1291555e-01
  7.1410332e-03
 -3.3039853e-01
  2.3208885e-01
  2.1233962e-01
  5.4748356e-01
  7.4738961e-01
 -4.6926764e-01
  3.4494913e-01
  6.2532312e-01
 -1.8130080e+00
 -5.8758187e-01
  1.1615196e+00
  1.8605553e+00
 -2.1260319e+00
 -2.7774978e-01
  9.7437388e-01
  1.3770345e+00
 -5.7605755e-01
 -9.3614906e-01
 -5.0484877e-02
 -3.1238735e-01
 -2.2509743e-01
 -7.5183302e-02
  7.4509263e-02
  9.3841583e-01
 -9.5168167e-01
 -4.0201777e-01
 -9.7936231e-01
  8.8234138e-01
  2.9277770e-02
 -6.1139452e-01
  5.7996011e-01
 -2.0005622e+00
 -1.9549341e+00
 -6.8386996e-01
  9.2536640e-01
  4.7558117e-01
  2.2327347e-01
  4.7697124e-01
 -3.7215613e-02
  4.7881469e-01
 -6.7888206e-01
  3.5109168e-03
 -3.7237067e+00
  9.8017365e-01
 -3.3761531e-01
  5.0568774e-02
 -1.7344305e-01
 -1.0965431e-01
 -8.3381134e-01
  1.6986477e-01
  1.1485161e+00
  1.2393013e+00
  2.4264100e-01
 -3.8641214e-01
  1.6697755e-01
  8.3259672e-01
  3.0712754e-01
 -4.3392451e-03
  3.1191131e-01
 -4.5650333e-01
  6.3264865e-01
 -8.7990332e-01
  2.0666498e-01
 -2.0562215e-01
  1.2947062e+00
 -2.9500517e-01
 -1.4277116e+00
 -6.1617523e-01
 -4.9207750e-01
 -1.5982279e+00
 -7.3102206e-01
  5.2002173e-02
 -1.6322839e+00
 -1.1083243e-01
 -5.9837252e-01
  4.1660213e+00
  9.5186820e-03
 -1.3038243e+00
 -5.0003618e-01
 -2.9383802e-01
 -4.5667392e-01
  1.0257591e+00
 -5.9249771e-01
  2.1185051e-01
 -1.4666384e-01
 -4.1908300e-01
 -6.6347796e-01
 -6.6041577e-01
 -3.3160162e+00
 -1.3698461e+00
  3.2662916e+00
 -8.5062635e-01
  2.0641038e+00
 -1.7789659e-01
  2.6725760e-01
  3.2696688e-01
 -2.3585403e-02
  6.1747420e-01
 -3.3028215e-02
 -3.3282644e-01
 -1.4690638e+00
 -3.9993197e-01
  4.4040477e-01
 -1.0248507e-01
  4.2976829e-01
 -7.5813633e-01
  2.0087020e-01
 -5.6854516e-01
 -1.6942720e-01
  6.6603249e-01
  2.0672271e-01
 -1.4395796e-01
 -1.4156146e-01
 -5.8593344e-02
  4.3535486e-01
  1.0222765e-02
 -5.4005455e-02
  2.0428269e-01
  8.1115635e-03
  2.1254286e-01
 -6.3427198e-01
 -7.5352126e-01
 -1.4133497e-01
 -1.5479439e-01
  4.4449607e-01
  1.8688641e-02
 -2.9856664e-01
  4.0037104e-01
 -2.5206119e-01
 -1.0629151e+00
 -2.2617868e-01
 -3.7649414e-01
 -3.7153503e-01
  6.4064592e-01
 -3.5232255e-01
  1.1716742e-01
 -9.9193454e-02
 -1.2386791e-01
 -7.3583961e-01
  2.9979372e-01
 -3.3805498e-01
  1.0519445e+00
 -1.7647821e-01
  4.7256237e-01
 -2.1579196e-01
  2.5275040e-01
  4.5845166e-01
  2.1789703e-01
 -1.1154466e-01
 -1.1239718e-01
 -7.7855414e-01
 -4.0095782e-01
  1.4855111e-01
  3.4574097e-01
 -1.5275450e-01
 -2.9173780e-02
  8.8684969e-02
  5.0606209e-01
  2.2305207e-01
  4.9757358e-01
  3.2828984e-01
 -7.1523869e-01
  1.6915053e-01
 -1.4710715e-01
 -7.7574241e-01
 -2.3151034e-01
  5.2421796e-01
  4.3224758e-01
  1.1007422e-02
  7.1955955e-01
 -5.9512407e-01
  1.0531969e+00
 -4.4523081e-01
 -5.5323267e-01
  7.0382364e-02
 -4.1404784e-01
  1.7791721e+00
  1.7128827e-01
 -7.2215688e-01
  1.5775291e+00
  7.4465615e-01
  7.9857588e-01
  4.1317761e-01
  4.2549166e-01
  5.2139866e-01
  5.2012944e-01
  2.8458977e-01
  1.3623527e+00
 -2.7828851e-01
 -8.8861817e-01
 -4.3297321e-01
  5.7559926e-03
  6.5426296e-01
 -2.0025170e-01
 -4.7914393e-02
  9.3198705e-01
  3.2416633e-01
 -6.1327404e-01
 -3.0564755e-01
  4.2157587e-01
 -6.0278517e-01
 -2.5602052e-01
  1.5788933e+00
 -1.7866656e-01
  3.1803685e-01
  1.5393617e+00
  3.7026983e-01
  3.8919624e-02
 -2.0298692e-03
  1.7710827e-01
 -1.1399323e-01
  8.3619952e-03
 -2.1091688e-01
  2.6119690e+00
 -4.1632169e-01
  2.2091070e-01
 -2.0853123e-01
  9.0319568e-01
 -3.4802742e-02
 -2.6112771e-01
 -2.3095899e-05
  1.5807003e-01
 -1.7602180e-01
  4.4099239e-01
 -2.3088266e-01
 -4.4739905e-01
 -3.1200150e-01
 -1.7944729e+00
  3.7817392e-01
  2.0362124e+00
 -4.2870104e-01
 -5.5502915e-01
  4.9399030e-01
  2.7813356e-02
  6.8836135e-01
  5.0313616e-01
  6.0768503e-01
  1.2767909e-02
  2.5844765e-01
 -1.3408790e-02
 -2.9359531e-01
 -2.3012932e-01
 -6.5871304e-01
  1.1131638e-01
  1.5081275e-01
  5.5718222e-03
 -7.7993147e-02
 -4.6010032e+00
 -1.5506650e+00
 -1.3469894e-01
 -2.2897825e-01
 -3.0428600e-01
 -9.0298355e-01
  9.8443431e-01
 -1.2349537e-01
 -4.7016022e-01
  2.0971250e-02
 -8.8641924e-01
 -1.6460103e+00
 -1.2149845e+00
  3.8680874e-02
 -6.7265764e-02
 -2.9979101e-01
 -1.9751076e-01
  6.4461225e-01
  2.2288276e-01
 -2.3839976e-01
 -3.0279040e-01
 -1.8170963e-01
 -2.1769090e-01
 -5.2339119e-01
 -7.9874015e-01
 -6.0113370e-01
 -8.1610519e-01
  1.6686264e-01
  2.5022340e-01
 -8.6689435e-02
 -1.8756778e+00
 -1.4073709e+00
 -1.2789044e+00
 -6.0368520e-03
 -1.0812584e+00
  7.2028583e-01
  2.1316811e-01
 -3.3316264e-01
 -1.5874919e+00
 -2.6795092e-01
 -8.3682376e-01
 -5.7974212e-02
 -3.7739876e-01
  3.0308031e-02
 -1.5764645e-01
 -1.8062233e+00
  2.6865867e-01
 -1.3864800e+00
 -2.0836277e-01
 -3.8426873e-01
 -5.1678503e-01
  1.0269536e-01
 -2.3191607e-01
  8.2471293e-01
 -1.1354009e+00
  3.4402183e-01
  6.8061560e-02
 -6.0026503e-01
  4.4895217e-01
 -7.7112997e-01
  6.7015755e-01
 -1.5426414e-03
  3.3488980e-01
 -1.2600055e-01
 -3.2194233e-01
 -1.4137324e+00
 -4.1277477e-01
 -3.4319419e-01
 -2.1851878e+00
  1.9930241e-01
 -2.1453385e-01
  1.1464062e+00
  7.5493276e-02
 -3.9838478e-01
 -3.4643286e-01
 -6.5415579e-01
  1.4436339e+00
 -1.6907370e-01
  1.9395779e-01
  2.2866207e-01
 -3.7498173e-01
 -1.0094259e+00
 -1.6176884e-01
  5.2611393e-01
 -2.0659764e+00
 -1.0359042e+00
 -2.1955200e-01
  2.9695016e-01
 -2.5496402e-01
 -1.5919851e-01
 -9.0636772e-01
 -6.1179215e-01
  4.0805635e-01
 -9.4767159e-01
  2.0622213e-01
 -2.4586039e+00
  4.9954232e-02
  6.7068654e-01
  1.3038265e+00
 -3.3560663e-01
  9.3926710e-01
  4.0086616e-02
  8.9358413e-01
  2.1345297e-02
  1.0889384e+00
 -1.0765487e+00
  1.4169127e+00
  1.4556186e-01
  4.6930194e-02
  3.3212924e-01
 -7.2453725e-01
 -1.6058729e+00
  9.7266376e-01
 -1.8527461e+00
 -9.7719617e-02
 -3.3724552e-01
 -2.6287916e-01
  4.6076325e-01
 -4.7434222e-02
  9.2503428e-01
  3.3275075e-02
  1.5528099e-01
  8.1340559e-02
  3.4572995e-01
  5.6155276e-02
  2.5863114e-01
 -1.8035665e-01
  5.3143609e-01
 -2.1683095e-01
  3.9881760e-01
 -8.0182868e-01
 -2.0817295e-01
  1.9677703e-01
 -6.7318946e-01
 -1.2037960e+00
  8.3146369e-01
 -5.8594123e-02
  1.1097342e-01
  7.3500019e-01
  5.3288805e-01
  2.9714137e-01
  1.0043407e-01
 -1.1118682e-01
  1.2239957e+00
 -3.2841798e-02
  3.9891386e-01
 -5.3440642e-01
 -3.3309549e-01
  3.2849395e-01
 -1.6918835e-01
 -6.2622410e-01
  7.3334706e-01
  7.7254400e-02
 -6.9863461e-02
  3.2366371e-01
 -6.0239559e-01
  7.3848033e-01
 -3.9090344e-01
 -6.4759213e-01
  7.8170174e-01
 -1.1229594e-01
 -6.7488566e-02
 -4.0367746e-01
  6.6898458e-02
 -6.1805304e-02
  4.9787275e-02
  9.1286093e-02
 -1.1387067e-01
  8.4030084e-02
  5.5009711e-01
 -4.6622303e-01
 -6.8623908e-02
  1.7626099e-01
 -1.6303804e-02
  2.2602774e-01
 -1.0740481e-01
 -9.2744118e-01
 -7.0303351e-01
  2.1873510e-02
 -8.8609374e-01
  1.1453733e-01
  2.4941942e-01
 -1.2647261e-01
  2.6255322e-01
  8.1926531e-01
 -3.9294830e-01
 -7.0639551e-01
  5.6345049e-02
  3.1542107e-01
  1.7544745e-02
  5.2541554e-01
  1.9158944e-01
 -2.7898939e+00
 -5.7809216e-01
 -4.6201494e-01
  4.2406984e-02
 -1.0031340e+00
  1.5552541e+00
 -1.1559873e+00
 -8.9682794e-01
 -2.6728849e+00
 -9.9999338e-02
  2.1217850e-01
 -3.2137301e+00
  8.0790353e-01
 -1.2847840e+00
  1.2770228e+00
  1.9135046e-01
  1.9030762e+00
  5.7038546e-01
  2.2341821e-02
 -4.2651016e-01
  1.1569843e-01
  4.8719302e-02
 -3.0050984e-01
 -2.6372081e-01
  2.0565268e-01
 -1.1314809e-01
 -3.8087317e-01
  1.8773404e-01
 -3.4929267e-01
  3.9954028e+00
  8.9952558e-01
  2.2998360e-01
  1.8666109e-01
  1.5484655e+00
  1.3299322e-03
  1.7919011e-01
 -4.7376487e-01
  1.7880070e-01
  1.0551220e+00
 -4.1738385e-01
 -1.2078884e+00
  2.0870395e-01
 -4.2806146e-01
  1.6881904e-01
  7.3035347e-01
 -3.6159512e-01
  6.5628126e-02
  3.5199732e-01
 -2.4094977e+00
  4.3692134e-02
 -5.5057430e-01
 -1.3033845e-01
  2.5158492e-01
 -8.2322031e-01
 -3.0048459e+00
 -2.2116913e-01
  7.6668286e-01
 -7.8630024e-01
  1.4637671e+00
 -7.8901380e-01
  3.9391320e-02
  4.0247431e-01
  3.0724534e-01
  7.0398543e-03
 -3.8892868e-01
  5.0360594e-02
 -1.7326607e-01
  9.9573456e-02
  1.1641082e-01
  1.2481874e-01
  4.7061360e-01
  8.0243802e-01
 -5.5078155e-01
 -1.9906245e-01
 -9.1998941e-01
  1.3843218e+00
 -1.1976997e-01
  1.8817361e-01
  4.8370293e-01
  5.9773964e-01
 -3.9777625e-01
  1.7087364e-01
  3.8233113e-01
 -1.3571839e-02
  4.1072038e-01
  2.1316183e-01
  6.0235780e-02
 -1.7989323e-01
 -4.1128242e-01
  1.3223798e+00
 -2.3357746e-01
  4.7449823e-02
 -1.3152930e-01
 -4.3821123e-01
  2.9320112e-01
 -1.6524796e-01
  7.0464665e-01
 -1.3468523e-01
  1.8535514e-01
  3.4275120e-01
  4.5121691e-01
  2.4560185e-02
  2.5971222e-01
 -2.6425251e-01
  3.5997540e-01
 -2.1956179e+00
  7.7618279e-02
 -1.5822068e-01
 -1.7304967e-01
  8.4687895e-01
  1.6865284e+00
 -1.1317703e+00
  2.3776507e-01
  1.4305212e-01
 -5.1910289e-02
 -7.1048981e-01
 -1.5498023e+00
 -9.4672537e-01
 -4.4268456e-01
  1.2017558e-04
  1.2433785e+00
 -7.7864301e-01
 -3.4185496e-01
  1.2233254e+00
 -3.6895022e-01
  9.5455430e-02
  2.5294596e-01
  4.3122759e-01
  9.8095852e-01
  1.1344455e+00
 -2.6969475e-01
  1.5609712e-02
 -8.1983723e-02
 -8.6647308e-01
  6.1572701e-01
 -4.0840527e-01
 -6.7771211e-02
  2.4894993e-01
  1.4121595e-01
  8.1427529e-02
  8.8545513e-01
  5.7174689e-01
  2.4065886e-01
  1.0185914e-01
  7.6431537e-01
  7.3341645e-02
 -7.1417201e-01
 -2.4571553e-02
 -4.0924869e-02
  2.2313304e-01
 -1.5793511e-01
  3.6468792e-01
 -4.1195509e-01
 -7.8302538e-01
 -1.9652961e-01
 -3.5830307e-01
 -3.8824233e-01
  4.5781088e-01
  4.2733589e-01
  5.0303543e-01
 -1.1816298e+00
 -4.9717934e-03
 -7.0397145e-01
 -4.7816217e-01
 -5.4371017e-01
  4.9312627e-01
  2.1744189e-01
 -3.1860012e-01
  2.9563519e-01
 -4.7319150e-01
 -1.1622543e+00
 -8.2503006e-02
 -9.8919511e-01
  7.1721345e-01
 -3.5351935e-01
 -1.8601876e-02
 -3.8837966e-01
  4.4441330e-01
 -8.9828640e-01
 -2.6160753e-01
  1.9920468e-01
 -1.0091230e-01
  6.5291148e-01
 -2.6833150e-01
  6.9996679e-01
  1.2300998e-01
 -3.8664192e-01
  8.7948972e-01
 -7.2448033e-01
  8.2042113e-02
  5.8483595e-01
  5.2676421e-01
 -1.7851682e-01
 -1.2486172e-01
 -7.7122942e-02
  8.8228464e-02
 -9.6319608e-02
 -2.3343410e+00
  1.3561130e+00
 -3.7065887e-01
  5.1050544e-01
  1.9606945e-01
  2.3562731e-01
 -6.0643411e-01
 -5.7127523e-01
  5.3600502e-01
  2.5540763e-01
 -6.6744804e-01
  3.2972971e-01
 -3.6444846e-01
 -8.1139714e-01
  3.7401062e-02
  7.6423258e-02
 -2.6241454e-01
 -4.5712996e-02
  5.3957295e-02
  4.7296411e-01
 -5.7102150e-01
 -9.8678516e-03
  5.1651776e-02
 -1.7564465e-01
 -8.2795221e-01
  1.7498294e-02
 -8.6615853e-02
  1.2597258e-01
 -1.8657872e-01
  7.9650566e-02
 -4.0593371e-01
 -1.0253637e-01
  5.5658656e-01
 -3.8034071e-03
  2.8842628e-01
 -6.2442105e-02
 -1.0431253e+00
 -3.1572187e-01
 -6.6456631e-02
 -2.0540481e-02
  6.4025998e-01
 -1.2588403e-01
 -5.0318366e-01
 -6.0293776e-01
  8.0403313e-02
  1.2935928e-01
  4.7984902e-02
  1.0252840e-02
  2.2531533e-01
  4.4575367e-02
  8.9986801e-02
 -2.2130942e-01
 -3.8634315e-01
  3.3972308e-01
  1.3557885e+00
 -6.9261539e-01
  1.2744454e-01
 -1.5366602e-01
 -5.5137414e-01
 -9.2083290e-02
  3.4329176e-01
 -1.9145032e-02
  7.1461886e-01
  1.8773973e-01
 -7.6624465e-01
 -1.0387713e-01
  8.5654622e-01
 -1.0696161e+00
  3.7573170e-02
 -5.0197399e-01
 -5.7639110e-01
  1.1379890e-01
 -6.2628293e-01
  2.4733600e-01
 -9.4302505e-01
  2.6765043e-01
  1.2102237e-01
 -1.0448046e+00
 -7.7730268e-01
  2.4608122e-01
 -1.5090080e-01
  6.5727286e-02
  1.7660770e-01
 -1.4932890e+00
 -4.6003556e-01
  3.9620448e-02
 -1.3962968e-01
  9.0503746e-01
 -4.8749751e-01
 -4.7186124e-01
  5.9815500e-02
 -2.8327802e-01
 -3.9469190e-02
  1.7867354e-01
  4.3137988e-01
  6.8357885e-01
 -6.1803675e-01
  5.4776484e-01
  1.3455550e-01
  2.8985495e-02
  4.2072512e-02
  2.2040254e-01
  5.1331025e-01
  4.0934443e-01
  5.6132859e-01
 -4.0509254e-01
  9.4695620e-02
 -6.8137538e-01
 -7.3061280e-02
  3.2860181e-01
 -2.2547984e-01
 -1.4378153e-01
  1.6162767e-01
 -3.0697441e-01
  2.8391176e-01
 -7.5043082e-02
 -3.1001237e-01
  1.3815702e-01
 -1.0869635e-01
  3.6391291e-01
  9.3640721e-01
  3.6207175e-01
 -7.6007015e-01
 -8.4645402e-01
 -1.3121015e-01
  5.2093316e-02
  3.0451238e-01
  2.5220639e-01
 -6.8100995e-01
  1.5337177e-01
 -2.3098180e-01
 -2.0854956e-01
 -1.1007607e-01
 -7.2656608e-01
  1.6551268e-01
 -1.0878957e-01
  2.1458684e-01
  2.8324890e-01
 -2.3077081e-01
  6.5746941e-02
  1.0879251e+00
  3.2663226e-01
  1.7816047e-01
 -1.7051321e-02
  6.9688821e-01
  1.6163002e-01
 -9.1913688e-01
  5.1747459e-01
  1.3425921e+00
  1.2893121e-02
 -4.5022914e-01
 -1.9091873e-01
 -3.6827464e-02
  1.0632271e-01
 -1.1990849e-01
  8.5585570e-01
 -8.1089741e-01
 -3.5565549e-01
  1.9522011e-01
 -1.9806083e-01
 -5.7958865e-01
 -3.8120437e-01
  1.3494462e-01
 -8.9147562e-01
 -4.2277882e-01
 -6.9883198e-02
  2.5932166e-01
 -6.7945868e-01
 -1.7222652e-01
  7.8097954e-02
  6.3639653e-01
 -4.0240827e-01
 -5.4985207e-01
 -2.1630324e-01
 -9.2775697e-01
  6.6154015e-01
  2.3939030e-01
  1.2847888e-01
  6.8540275e-02
 -2.5517946e-01
 -5.4857444e-02
 -4.3092296e-01
  9.1181427e-01
 -2.2473639e-01
 -2.4195272e-01
  2.9466018e-01
  6.9266480e-01
  3.5580498e-01
  9.6624666e-01
 -4.4105178e-01
 -1.6106790e-01
 -2.7179265e-01
  6.4590901e-02
 -2.0618169e+00
  3.9216721e-01
 -7.4642971e-02
 -5.2157491e-01
 -1.6966440e-01
 -2.0737963e+00
  5.0529766e-01
 -1.7790938e-02
 -3.7951324e-02
  1.3230681e-01
 -3.0866408e-01
  5.5443242e-02
 -5.9403963e-02
 -1.4095491e+00
 -4.5042035e-01
 -1.1151007e-01
  3.5132650e-02
  2.3740883e-01
  1.6492915e-01
 -3.5896164e-01
 -1.5843716e-02
 -3.7660205e-01
  2.1020453e-01
 -9.4179273e-02
 -4.1515172e-01
 -4.3203938e-01
  2.4856773e-01
  7.6392651e-01
 -8.1231898e-01
 -7.4368417e-01
  3.0902654e-01
  5.8967441e-01
 -5.6745920e-02
  1.7659202e-01
  2.6009738e-01
 -5.7151037e-01
 -2.5056973e-01
 -1.7061959e-01
 -8.2201278e-01
 -4.1059185e-02
  3.9144874e-02
  8.2574725e-01
 -1.8610559e+00
  4.2280510e-01
  3.1056492e+00
 -1.6609590e+00
 -1.8426083e+00
 -2.7450199e+00
 -2.9389699e+00
  1.8645661e+00
  1.8714877e+00
  7.6598540e-02
  1.0122391e-01
  3.3893700e+00
 -1.9177691e+00
  5.4216319e-01
 -5.6834400e-01
  1.5521045e+00
 -4.9865916e-01
 -9.6676648e-01
  2.1808496e+00
 -1.3061212e+00
  1.1080106e-01
  2.4410393e+00
  8.1539297e-01
  6.7006642e-01
 -1.6459225e+00
 -5.0563961e-01
 -7.7452260e-01
  1.3061738e-01
 -2.2805264e+00
  7.2335511e-01
 -1.5970970e+00
 -2.5935700e+00
 -2.3235345e-01
 -2.3129520e-01
 -2.3035080e+00
 -2.3931499e+00
 -3.0305764e-01
 -1.9892920e+00
 -2.3151209e+00
 -1.2444568e+00
  2.4433668e+00
  1.1439264e+00
 -1.8489083e+00
  1.1872159e+00
  1.9936392e+00
  1.2915848e+00
 -2.8785497e-01
  2.2110062e+00
  1.7489448e+00
  2.2508426e+00
  2.0596512e-01
 -3.1075974e+00
  1.2578689e+00
 -2.4652925e+00
  1.1665649e+00
  7.8377938e-01
  2.0175502e+00
  3.3373518e+00
 -2.4605379e+00
 -7.3053896e-01
 -2.1424944e+00
 -1.4299117e+00
 -2.0328038e+00
  1.8559682e+00
 -1.0672828e+00
  1.1282537e+00
 -1.5829275e+00
  6.6387534e-01
 -2.5157702e+00
 -2.1538849e+00
  8.4490830e-01
  2.3937569e+00
 -1.4296938e-01
  1.6462377e+00
  1.6048104e+00
 -1.2282516e+00
 -1.7037188e+00
 -2.6188085e+00
  2.8985238e+00
  1.8211432e+00
 -3.8070548e-01
 -2.5079712e-01
  1.6693335e+00
 -1.5488480e+00
  5.9349597e-01
 -9.4109768e-01
 -2.1555998e+00
  6.4383423e-01
  2.5870781e+00
 -4.8821680e-02
  9.1166997e-01
  1.6897733e+00
 -3.8993230e-01
 -3.9154211e-01
 -1.9001783e+00
  3.4714246e-01
 -9.2066109e-02
 -3.7519422e-01
  6.3376647e-01
 -2.3033040e+00
  2.4928107e+00
  5.5389869e-01
  8.1900573e-01
 -5.0970930e-01
 -5.2979988e-01
  2.3021798e+00
 -3.2410741e-01
  7.5737041e-01
 -2.2002165e+00
 -8.9824063e-01
 -6.1971389e-02
 -1.1023818e+00
 -3.9351931e-01
 -6.0762322e-01
 -8.1126863e-01
 -2.3352732e-01
  3.2524344e-01
 -2.0152946e+00
 -1.5220239e+00
 -2.2467396e-01
  1.3075616e+00
 -5.0503331e-01
 -1.0797818e+00
  5.5387646e-01
  1.5857877e+00
 -8.8055980e-01
 -3.9417279e-01
  1.5818328e+00
  5.7532156e-01
  5.8286220e-01
 -9.8057501e-02
 -3.4993799e+00
  8.0637500e-02
 -2.2450740e+00
  2.9345825e-01
  6.3408136e-01
 -3.8602296e-02
  1.6813453e+00
 -1.7252427e+00
 -4.9022755e-01
 -6.4570320e-01
 -3.7460086e-01
  1.7234838e+00
  1.9269536e+00
 -1.0279884e+00
 -2.4497670e-01
 -3.0470634e-01
  9.7143763e-01
 -3.3668602e-01
 -2.4976580e+00
 -2.8111389e-01
  1.1829007e+00
  1.2955452e+00
  2.0052265e-01
  1.1831964e+00
 -2.1352968e+00
 -2.6718605e-01
 -2.5287201e+00
  3.0741041e+00
  8.2589871e-01
  8.2926922e-02
 -5.1293308e-01
 -2.0742908e+00
  2.4981227e-02
 -2.0173905e+00
 -1.0904701e+00
  1.6363035e+00
  2.2679231e+00
 -1.0150989e-01
 -1.8439795e-01
  8.7212718e-01
  4.0244259e-02
 -3.5955090e-02
 -9.4715893e-01
  3.3650410e-01
 -7.5687951e-01
  1.5159053e+00
 -1.5498129e+00
 -6.1082608e-01
  5.6684318e+00
 -2.0903723e+00
  8.8053834e-01
 -2.9304498e-01
  8.3288401e-01
  3.5988316e-01
  9.3148881e-01
 -1.1179886e+00
  4.6112323e-01
 -1.1323434e+00
  6.2354244e-02
  3.1303041e+00
 -6.6659683e-01
  8.7382752e-01
  6.7795199e-01
  2.1758673e+00
 -7.3316145e-01
 -1.9659358e+00
  1.2221141e-02
  3.4428304e-01
 -3.0988369e+00
  6.0250896e-01
  1.0872968e+00
 -1.3246622e+00
  1.5035522e-01
  1.0141382e+00
 -5.1090574e-01
  1.8980584e+00
  3.0734381e-02
 -9.3976706e-01
  5.6944229e-03
  8.2193494e-01
 -5.7228172e-01
 -7.7842510e-01
 -4.7938129e-01
  1.4329703e-01
 -1.8232362e-01
  1.4797862e+00
 -2.4848458e-01
  1.9843235e+00
  1.2233146e+00
 -1.1253830e-01
 -5.6181568e-01
  2.1008134e+00
 -9.6033320e-02
 -2.0999929e-01
 -6.5772456e-01
  8.3230883e-01
  5.9552646e-01
 -2.5807950e-01
  4.3461359e-01
  1.8094851e+00
 -2.6211923e-01
 -4.5703977e-02
 -1.2600830e+00
  5.0306308e-01
  1.1257739e+00
  6.5541726e-01
  3.1405947e-01
 -3.0601493e-01
  1.6859062e+00
 -1.2663515e-01
 -1.1184863e+00
 -1.0478564e-01
  1.4060256e-01
  7.2745454e-01
 -2.5248773e+00
 -1.8010676e+00
  6.6837144e-01
 -5.6492078e-01
 -2.1483029e-01
 -5.0301945e-01
  4.7526976e-01
  6.9274873e-01
  1.9120425e+00
 -1.4656052e-01
  8.0836099e-01
  1.6325493e+00
 -2.0729171e-01
  8.4636196e-02
 -6.8416074e-02
  2.6803055e-01
  6.9986686e-02
 -6.3734001e-01
  5.7739758e-01
  1.6930391e-01
 -1.0397938e+00
 -3.4438705e-01
 -2.6755187e-01
  6.8515554e-02
  2.8152055e-01
  5.5396438e-01
  8.0467057e-01
  2.6258814e-01
 -1.6531552e-01
 -4.7674882e-01
 -2.0013483e-01
 -4.0339977e-02
  1.1419094e+00
 -3.5601932e-01
  6.8804228e-01
 -3.8952383e-01
 -3.0477507e-02
  1.9744439e-01
 -2.5352097e-01
  5.5191028e-01
  4.5853785e-01
  1.3869411e-01
 -5.0427437e-01
 -4.0778276e-01
 -4.9166247e-01
  6.2540078e-01
  1.5653087e-01
 -5.8068138e-01
 -2.5529668e-01
 -4.3334720e-01
 -2.2067110e-01
 -5.3513688e-01
 -6.2949413e-01
 -1.5502100e-01
  3.3349493e-01
 -7.8982908e-01
  2.4131043e-01
 -5.0384474e-01
  1.3152778e-01
  4.7758630e-01
 -2.9788184e-01
 -1.3638535e+00
 -2.1532564e-01
  5.7773238e-01
  1.7959684e-01
 -3.4474087e-01
  1.6903152e-01
  4.9337012e-01
  2.4171098e-01
  3.0841297e-01
  1.6850157e+00
 -1.1702721e-01
 -1.1039650e+00
 -3.8536912e-01
  1.1017302e+00
  6.8044728e-01
 -6.6329189e-02
  3.8468081e-01
 -3.8274908e+00
 -7.0912468e-01
 -2.7020279e-01
  2.1898425e-01
  2.6980814e-02
  3.5308549e-01
  1.5405600e-01
 -6.9031276e-02
 -8.5782754e-01
 -4.9519304e-02
  2.1605089e-02
  1.0687972e-01
  3.8619381e-01
 -3.2332045e-01
  4.4518682e-01
 -3.4857565e-01
  4.0796253e-01
  2.5320336e-01
  2.3819935e+00
 -2.0995779e-01
 -2.7647769e-02
  1.5144244e+00
  2.8042230e-01
 -4.3064508e-01
  2.4136949e-01
  1.0603771e+00
  5.2776223e-01
  7.9021233e-01
 -3.5282472e-01
  1.6807754e-01
  5.0521606e-01
  4.2809585e-01
  5.9980762e-01
 -1.1965330e-04
  3.2606456e-01
  5.6474186e-02
 -2.7690712e-01
 -1.0540311e-01
 -3.9689858e-02
 -2.9262915e-01
  1.8269545e-01
  1.9763622e+00
 -5.3941198e-03
  5.9964794e-01
 -8.2624179e-01
  1.0940115e+00
 -3.8660869e-01
 -5.6648028e-01
  4.0893221e-01
  1.9890202e+00
 -2.4939291e+00
 -3.3078206e-01
 -3.6561921e-01
 -7.0884269e-01
 -6.7477785e-02
 -8.8980392e-02
  5.2100748e-01
 -3.0959025e-01
  1.9852608e-01
 -5.7222044e-01
  5.3833014e-01
 -2.8337422e-03
 -4.4787607e-01
  1.1036460e+00
 -2.0960763e+00
  7.5414807e-02
 -1.4806554e-01
 -8.4161597e-01
  6.2681839e-02
 -9.4236714e-01
 -7.5856066e-01
 -4.8760909e-01
 -5.5762649e-01
 -1.3175575e+00
  1.9952007e-01
 -3.7766278e-01
  1.1099625e-01
  3.6870131e-01
  8.2343256e-01
  2.0865242e+00
  6.1348879e-01
 -3.8828364e-01
 -1.6430548e-01
  1.8648118e+00
  3.9991158e-01
  1.6147964e-01
  4.7719020e-01
  7.8674161e-01
 -3.4006711e-02
  3.9516404e-01
 -2.3503724e-01
  1.6479339e-01
 -3.0391079e-01
  9.0260252e-02
 -4.8722720e-01
  9.7854793e-02
  7.0510417e-01
 -2.3780400e-01
  6.8767762e-01
 -2.8138611e-01
  3.3035654e-01
  1.3850657e+00
 -8.9419782e-01
  1.9911936e-01
  9.2332488e-01
 -7.7724081e-01
 -1.2147468e+00
 -2.0209429e+00
 -4.3799515e+00
 -1.5125313e+00
  2.1001108e+00
  1.9707309e+00
 -1.3611963e+00
 -4.7572175e-01
 -9.0262502e-01
 -1.6398164e+00
  1.1063292e+00
  5.7624030e-01
  2.5190648e-01
 -3.0022480e+00
  4.2211768e-01
 -3.2908285e+00
 -4.8051726e-02
  1.1433103e+00
  4.8746267e-01
 -8.9673072e-01
  6.2791723e-01
  3.0440077e-01
 -5.7672274e-01
  8.2581651e-01
  1.0898069e-02
 -2.7538124e-01
 -2.5299101e+00
  5.7356554e-01
 -2.6264405e-01
 -2.8361385e+00
 -4.5007512e-01
  1.4852957e+00
 -1.9789314e-01
  2.7379322e-01
 -1.8509459e-01
  1.8893902e-01
  8.2676542e-01
 -3.2059732e-01
  2.8802339e-02
 -2.7530443e-02
 -5.1191264e-01
 -6.4401579e-01
  1.0992718e+00
  5.9429270e-01
  1.6225959e+00
 -7.7083850e-01
 -2.5909361e-01
 -1.6199763e-01
 -2.4391451e-01
  2.2037585e-01
  1.8520971e-01
  9.4015962e-01
  6.4938056e-01
  9.9479091e-01
  1.5773886e+00
 -4.3191120e-01
 -2.1978238e-01
  6.7368142e-02
 -6.6691019e-02
  5.6287271e-01
  3.5502720e-01
  4.2142826e-01
  5.5968404e-01
 -1.5214603e+00
  7.1250904e-01
  6.3017386e-01
  6.2627208e-01
  5.5747771e-01
 -2.9685020e-01
  3.0072722e-01
  1.3601893e-01
  3.8574472e-01
  1.0450647e+00
 -2.7213749e-01
  3.8131315e-02
  7.0460731e-01
  1.2837321e-01
  2.2916911e+00
 -7.3593891e-01
 -6.6727400e-02
  4.6016118e-01
 -5.3217840e-01
  1.4586498e-01
  1.0653733e+00
  9.4248474e-01
 -9.8155755e-01
 -1.0214490e-01
  4.2167097e-01
 -2.4404152e-01
  6.9758201e-01
 -2.6933321e-01
 -1.0331521e+00
  2.5744635e-01
  2.6907444e-01
  1.2241470e+00
 -1.3780048e-01
  1.5224874e-01
  1.4281421e+00
  4.7274595e-01
  1.5069930e-01
  4.4272214e-01
 -8.7645483e-01
 -8.9828774e-02
  1.2018952e+00
 -1.1572874e-01
  2.6346967e-01
  3.2038000e-01
 -3.4233651e-01
  5.7022583e-01
  2.2710745e+00
  1.1803464e+00
 -2.1002430e-01
 -1.6459544e+00
  2.6783533e+00
 -8.5521609e-02
 -2.3095767e+00
  1.1850172e+00
 -3.8857892e-02
  2.5720677e-01
 -1.1391317e+00
  6.8033807e-02
 -8.5598327e-02
  3.8445467e-01
 -3.8835558e-01
  5.2856737e-01
  1.7880407e-01
 -6.2880665e-01
 -1.3842052e-01
 -1.3534474e-01
 -2.0315938e-01
  6.8486542e-01
  5.5220854e-01
 -5.7673335e-01
  2.3260510e+00
  3.4440883e-02
  7.2389197e-01
 -2.1404467e+00
 -1.3592430e+00
  1.9438484e-01
 -9.9174887e-01
 -3.0649421e+00
  8.5520983e-01
 -7.5778455e-01
 -3.8867621e+00
  7.1144319e-01
  1.1782107e-01
 -2.3857614e-02
  4.0475038e-01
  2.1592805e-01
 -6.5955573e-01
  4.1590226e-01
  7.5322568e-01
 -1.0726279e+00
  2.8579602e-01
 -8.9684099e-01
 -1.4056961e-01
 -8.8350850e-01
 -7.6801014e-01
  7.8095311e-01
  7.6599324e-01
  1.1941258e+00
 -2.0509858e-01
 -1.5088286e-02
 -6.0472220e-01
  1.0640861e+00
  2.3976200e+00
 -1.8296061e+00
 -1.3869186e-01
 -6.8419571e+00
 -1.4193004e+00
 -1.7075083e+00
  4.7629353e-01
 -3.0783594e-01
  1.1137831e+00
 -6.0253936e-01
 -2.1673951e-01
  1.1977011e-01
 -2.2722317e-01
  1.3249417e-01
  5.3322083e-01
 -7.5549901e-01
  1.0363571e-01
  6.4174247e-01
 -4.0651816e-01
 -1.6481648e-01
 -6.6881150e-01
  1.0059951e-01
  1.5383250e-01
 -1.9709921e+00
 -4.3427053e-01
 -3.8130102e-01
  2.5201917e-01
 -1.0875664e-01
  2.8708464e-01
 -8.3648401e-01
 -3.9948609e-02
  1.0029842e-02
 -9.6605271e-02
 -9.8649812e-01
 -1.1629908e+00
  7.2727948e-02
 -1.1428088e-01
 -3.1144014e-01
  4.4189110e-01
  1.2546731e+00
  6.4676857e-01
  5.2959913e-01
  5.9755158e-02
 -1.0701983e+00
  1.3065319e+00
  2.0585927e-01
 -1.3499062e-01
  6.6842973e-01
 -6.5440166e-01
 -5.3646076e-02
 -5.2398449e-01
  5.8948231e-01
  2.1657071e+00
 -7.4424177e-02
  9.9753910e-01
 -1.7371972e-01
  1.9803188e+00
 -4.7300491e-01
 -3.6887571e-02
  1.2688477e+00
  9.0765417e-01
 -5.6339020e-01
 -6.7358577e-01
  3.3237951e+00
  1.2665254e-01
  2.6279315e-01
  3.3397067e-01
  5.2972239e-01
 -2.4065787e-01
  8.8606936e-01
  1.5176718e-01
  9.1286373e-01
  6.0259514e-02
 -6.1058354e-01
  3.4639814e-01
  1.1856418e+00
  2.6016917e+00
 -4.8107687e-01
 -9.1695607e-02
  1.7954618e-01
 -8.0939436e-01
 -5.5370897e-01
  1.7947440e-01
 -7.8707612e-01
  9.6323901e-01
 -8.7352711e-01
 -1.2847089e+00
 -1.3692310e-01
 -7.5346857e-02
  5.8783698e-01
  9.2165971e-01
 -2.5690031e-01
  1.8028793e-01
  1.7673323e-01
 -1.3602573e-01
  3.3626029e-01
  3.0969825e-01
  4.7056553e-01
  2.0275599e-01
  5.4428011e-01
  5.9850460e-01
  6.8822336e-01
 -1.6671418e-01
  1.5937713e-01
  4.2148829e-02
 -1.0150788e-01
 -1.0481470e+00
  9.8131138e-01
 -5.5045891e-01
 -4.0377926e-02
  6.0186207e-02
 -2.7716416e-01
  3.1839278e-01
  7.7882111e-02
  2.7456766e-01
  1.6085100e+00
  2.6347002e-01
 -1.0300852e+00
  9.0820783e-01
  4.2127243e-01
  1.2370767e-01
 -9.0871751e-02
  2.9663125e-01
 -4.1569552e-01
  8.1275277e-02
 -1.3989464e+00
  9.4748169e-01
  4.7546190e-01
  3.5189125e-01
  1.0082829e+00
  2.5749409e-01
 -7.6275134e-01
 -3.1904593e-01
  1.1934227e-01
 -1.2226546e+00
  4.2996326e-01
 -2.1435732e-01
 -1.3349298e-01
  1.4558460e+00
 -8.7855870e-01
 -1.2099871e-01
 -1.5531164e-01
  3.7066722e-01
  1.2123916e-01
  4.9910200e-01
 -5.0286937e-01
  7.8608066e-02
 -1.4827139e+00
  6.4224303e-02
  3.8930595e-01
  9.6976802e-02
 -4.5364735e-01
  4.7265485e-01
 -6.8270451e-01
  1.7162770e-01
 -1.4743738e-01
  1.6885527e+00
  5.4200464e-01
 -6.9040298e-01
 -3.3092979e-01
 -4.6120432e-01
  1.1836693e-01
 -5.8235544e-01
 -1.3933260e+00
 -8.0620468e-01
  3.6700954e+00
  3.5532436e-01
  6.6933417e-01
 -2.9050824e-01
  2.9251873e-01
  7.9986013e-02
 -2.9461575e+00
 -9.1842785e-03
  6.4422697e-01
 -5.4661888e-01
  5.9437180e-01
  2.5995502e-01
 -7.5591421e-01
  1.1778075e+00
 -4.8833376e-01
 -1.0823210e+00
  9.1290966e-02
 -1.5906535e-01
  2.5439858e-01
  1.0097563e+00
  4.2270994e-01
  1.0858448e-01
  1.2084149e+00
  1.0786197e+00
 -4.0013786e-02
 -6.4166790e-01
 -8.8866264e-02
 -2.5793901e-01
 -3.3411002e-01
  5.2847284e-01
  4.9415836e-01
 -3.7405655e-01
  3.2030925e-01
  3.3140051e-01
 -1.9339862e-01
 -1.9356844e-01
 -3.4705967e-01
 -2.0465715e-01
  1.1159855e-01
  8.4556542e-02
  1.3481362e+00
 -9.3248671e-01
 -3.0277181e-01
 -6.2633939e-02
  4.8664369e-02
  2.3075697e-01
  6.2532455e-02
  7.1621782e-01
 -2.2400074e+00
  2.7648535e+00
  1.7780585e+00
 -9.8008431e-02
  9.7483331e-01
  8.3966833e-03
  3.4945009e+00
  8.3524418e-01
 -6.6418976e-01
 -1.2384419e+00
 -9.4483685e-01
 -1.0021774e+00
 -5.0733018e-01
 -1.5587299e-01
 -2.8574869e-01
  1.2839523e-01
  8.2256794e-01
 -7.8418928e-01
 -6.0980523e-01
 -8.6150698e-02
  5.5633330e-01
  4.5570034e-01
  5.5649412e-01
  6.9469744e-01
  2.5491533e+00
 -8.3265716e-01
 -1.9245745e+00
 -4.7766313e-01
  1.0859833e+00
  3.8483027e-01
 -6.0114992e-01
 -4.9243799e-01
  1.6501307e-01
 -3.0211339e-02
 -2.8453502e-01
  7.2921842e-01
 -5.6059688e-01
  1.1357794e+00
  5.5197895e-01
  2.3883285e-01
 -4.9790764e-01
  5.6166321e-01
 -5.2316844e-02
  6.0534316e-01
  1.4380007e+00
 -3.7096661e-01
  3.2388046e-01
  2.0688097e-01
 -6.1726290e-01
 -3.5695753e-01
 -5.8158074e-02
  7.2047544e-01
  2.2747411e-01
  5.0458476e-02
  4.0506440e-01
  2.0954113e+00
 -2.4043564e-01
 -7.7283108e-01
 -2.5634947e-01
  3.4116068e-01
  2.9938513e-01
 -1.1690644e+00
 -9.6226472e-01
 -9.1410583e-01
 -2.2949044e-01
  3.2810855e-01
 -8.5880637e-02
  6.7405589e-02
 -1.3069260e+00
  7.9644686e-01
 -5.0913434e-02
 -9.5502126e-01
 -1.7181318e-01
  5.9649193e-01
  5.6497091e-01
  1.1373140e+00
 -1.0512136e+00
 -1.1060799e-01
 -3.4259833e-02
 -1.7364685e-01
  2.0923473e-01
 -5.0955063e-01
  2.7030322e-01
 -8.0535895e-01
 -2.4704018e-01
 -7.1351510e-01
  7.7993274e-02
 -5.6494915e-01
  9.9626827e-01
 -5.5145299e-01
 -3.4913823e-01
 -8.7142342e-01
 -8.5239130e-01
  2.6521161e-01
 -4.2777333e-01
  1.8735780e+00
  5.4160219e-01
  1.6568013e-01
 -2.4969834e-01
  6.6604483e-01
  6.5601301e-01
 -7.5480127e-01
  2.7957508e-02
 -2.4063964e+00
 -4.6229240e-02
 -3.9283383e-01
 -1.9151084e-01
 -4.7676176e-02
  4.9670193e-01
 -1.4624681e+00
 -1.3921142e-01
  1.1538036e+00
 -2.0218380e-02
 -7.1997571e-01
  9.7043973e-01
 -7.2905056e-02
  6.9692129e-01
  2.1465631e-01
 -4.7672272e-02
 -2.8461512e-02
 -2.5301760e-01
 -4.1783226e-01
  9.6094024e-01
  1.7259141e+00
 -7.3500115e-01
  2.8486643e+00
 -1.2224058e-01
 -1.2763487e-01
  6.7263328e-02
 -7.1304870e-01
  4.5798922e-01
  1.1482893e-01
  6.1494535e-01
 -1.6957015e-01
 -2.0014508e+00
  3.9274976e-01
 -6.4935100e-01
  4.1171256e-01
 -3.9815146e-01
  7.6568836e-01
 -4.6737126e-01
 -2.6930222e-01
 -9.4450668e-02
 -8.9280319e-01
 -1.7304993e-01
 -3.9853966e-01
 -7.9853523e-01
 -7.3825437e-01
 -4.6429864e-01
 -8.8230026e-01
  3.7091041e-01
 -1.2194587e-01
  1.4668983e-01
  1.4790349e-01
 -9.1192055e-01
 -5.8893591e-01
  2.2878529e-01
 -2.4261871e-01
 -7.5497501e-02
 -2.0394771e-01
  2.9848894e-02
 -4.4106928e-01
 -7.1829325e-01
  1.2014311e-01
  3.0640018e+00
 -2.5584868e-01
  1.0691617e-01
 -3.8085273e-01
  2.6656351e+00
  6.5398419e-01
 -5.0280708e-01
  3.0134350e-02
 -9.3763374e-02
  3.9966911e-01
  2.9793245e-01
 -2.9789388e-01
 -4.7417605e-01
  1.5492864e+00
 -1.0761475e-02
  1.2061143e+00
 -1.9944675e+00
 -2.7316847e-01
  4.2419615e-01
 -3.7959269e-01
  4.5947057e-01
 -1.6587506e-01
  5.1860982e-01
  1.6388777e-01
 -2.8359456e+00
  2.3210050e-01
  1.5508451e-03
  1.3831663e-02
 -9.2187601e-01
  4.4113597e-01
  1.3147169e+00
 -5.9232637e-02
 -1.9405606e+00
 -4.0607578e-01
 -4.4979647e-01
 -3.5338044e-02
 -1.5639282e+00
 -9.9222368e-01
  1.4004946e-01
  1.1730651e+00
  2.5472569e-01
  4.6105486e-01
  7.1749002e-02
 -5.3738475e-02
  1.0126659e+00
  3.1487140e-01
  1.0757779e-01
 -2.3417000e-01
  3.6638415e-01
 -3.5224646e-01
  4.9123890e-03
  7.8220195e-01
 -8.5081078e-02
 -1.4957385e-01
  9.9369273e-02
 -2.1247780e+00
 -2.5427747e-01
 -1.8085253e-01
  6.1142600e-01
  4.0140891e-01
 -2.2922227e+00
  3.9015346e+00
  8.2552844e-01
  3.7277956e+00
 -2.2264680e-01
 -1.8442677e-01
  1.3816193e+00
  8.3378828e-01
 -3.1191534e-01
 -1.0025101e+00
  3.4619477e-01
 -5.3447404e+00
  5.1682454e-02
  5.9288371e-01
  8.4331322e-01
 -3.9638065e-02
  4.4570419e-01
  6.7513567e-01
  4.7555709e-01
 -2.8648990e-01
  6.5336561e-01
 -1.4123324e+00
 -8.1195503e-02
  5.3117496e-01
 -2.4880866e-02
  3.4081781e-01
  1.7173795e-01
  2.3751946e-01
  6.1406404e-01
  4.5164958e-01
 -3.0789530e-01
  5.5959809e-01
 -5.7108039e-01
 -8.3085793e-01
 -8.2485014e-01
  1.3892707e+00
  1.3065463e-02
 -3.0649686e-01
 -1.4344887e+00
  7.0114946e-01
  9.0126038e-01
  1.1364868e+00
 -2.1251924e-01
 -9.5825955e-02
 -2.9664889e-01
 -1.3405353e-01
 -5.5422533e-01
 -7.0192283e-01
 -2.3168810e-01
  1.7382272e+00
 -1.3777161e-01
  5.8438597e+00
  2.6192525e-01
  7.6098150e-01
  1.7805494e-02
 -5.9033561e-01
 -9.9398428e-01
 -3.9320388e-01
 -3.0546948e-01
 -5.1979190e-01
 -5.1965606e-01
 -4.2842379e-01
  1.8542325e-01
 -1.0354962e+00
  6.9169599e-01
 -3.0696231e-01
  1.6336655e-02
 -3.6719966e-01
  7.9112351e-01
 -1.4097459e+00
  6.5199204e-02
  1.5339358e-01
  4.8642087e-01
  5.8117992e-01
 -8.0602181e-01
 -7.8194842e-02
 -4.0620628e-01
  1.6084711e-01
 -9.2245750e-02
 -1.9627918e+00
 -7.6287709e-02
 -1.3020821e+00
  7.7674252e-01
  5.9814282e-02
  2.6925394e-01
  2.6171484e+00
  1.7420389e-02
  7.4570221e-01
  9.1567105e-01
  4.4264683e-01
  2.6838735e-01
 -1.3506877e+00
  1.0296273e+00
 -1.1990513e+00
  1.1948731e-01
 -8.0692716e-02
 -7.7093464e-01
  8.8336855e-01
 -3.0965909e-01
  4.2311025e-01
  8.6297238e-01
 -1.4167405e+00
  1.0489784e+00
 -1.9766085e-01
  3.1592751e-01
  1.5451051e+00
 -8.9103603e-01
  6.8917565e-02
 -1.6387464e-01
 -6.4479971e-01
  6.3559055e-01
 -2.8046377e+00
 -2.4836467e-01
 -8.0746830e-01
  6.7739922e-01
  2.7772260e-01
  3.1345311e-01
  1.2506330e-01
  1.7392161e-01
  2.2881719e-01
 -1.9401630e+00
 -3.5598278e-01
  2.0004148e+00
  2.4086139e-01
 -2.7334359e-01
 -7.8630364e-01
 -3.0716774e-01
  2.2315905e+00
  2.8059378e-01
  4.4711289e-01
 -8.8158715e-01
 -1.2086501e-02
 -1.6215919e-01
 -3.7718926e-02
 -3.1321794e-01
  4.4184855e-01
  2.0495661e-01
  2.3156109e-01
 -6.1060792e-01
  1.2549660e-02
 -1.1443718e-01
 -2.9656750e-01
 -5.3939443e-02
 -3.6861628e-01
  5.0686717e-01
 -4.2286006e-01
  8.0437946e-01
 -2.1702944e-01
  3.3920488e-01
  7.3873229e-02
  3.5907641e-01
  1.5244201e+00
 -5.2879292e-01
  2.4945717e-01
  9.1986394e-01
  3.3429146e-01
 -7.1441048e-01
  4.3433502e-01
  1.3144749e+00
  1.2535638e-01
  6.8712495e-02
 -7.7528703e-01
  3.2455522e-01
  1.9864525e-01
 -7.2708201e-01
  3.8043246e-01
 -1.2151042e+00
 -9.5443201e-01
 -9.1287297e-01
 -1.9736337e-02
 -3.9599052e-01
  3.4441017e-02
 -8.1636924e-01
 -4.7605295e-02
  8.3921593e-01
 -9.6506608e-01
 -9.0090460e-01
 -4.7876120e-01
 -8.7059957e-01
 -1.0103854e-01
  2.1756080e-01
 -5.7729810e-01
 -1.7993389e+00
  9.8651983e-02
 -2.2337592e-01
 -5.3718258e-02
 -8.7745106e-01
 -1.0214218e+00
  6.5912656e-02
 -5.5155212e-01
  1.0434371e+00
 -3.5053661e-01
 -1.9396659e+00
 -4.9664325e-01
 -4.3839571e-01
  1.7775755e-01
 -2.7057064e-01
  3.9889210e-01
 -1.4098306e-01
  5.4770976e-01
 -1.4972751e+00
 -7.7725160e-01
 -9.4345254e-01
  6.4274549e-01
 -6.4346737e-01
 -9.9631345e-01
 -1.3130116e+00
  1.6867565e+00
  6.1816669e-01
 -6.7966419e-01
 -3.0040318e-01
  2.2743873e-01
 -3.6753836e-01
  1.2617692e+00
  9.5125109e-01
 -5.4077852e-01
 -5.3334022e-01
 -1.0753124e+00
  7.0006764e-03
  1.6110784e-01
 -6.6977012e-01
  8.3606791e-01
 -7.1125075e-02
  4.2028677e-01
 -2.3491637e-01
 -7.9336584e-01
  1.0641027e-01
  5.8967166e+00
  6.5076751e-01
 -2.3817210e-01
  1.0750381e+00
 -2.6868260e-01
  5.1405132e-01
  2.3719063e-01
 -9.0480155e-01
 -1.0741512e+00
 -1.2273154e-02
 -5.4702725e-02
  2.5940722e-01
 -8.3504528e-01
  1.7281895e+00
 -1.9887301e-01
  4.3138090e-01
 -8.7331218e-01
 -2.9241937e-01
 -4.2891362e-01
  5.5139750e-01
  6.7881882e-01
 -1.4806399e-01
  3.0639344e-01
 -2.2619629e-02
  1.8546923e-01
  3.2457937e-02
  4.6247256e-01
 -9.7885716e-01
  3.6822242e-01
  7.1846712e-01
  2.0821126e+00
 -1.2420516e-02
  7.8211337e-01
 -7.6165006e-02
 -7.8812647e-01
  1.0393912e+00
 -1.2932380e-01
 -6.9923729e-01
  2.2461832e-01
  7.8988034e-01
  5.8999574e-01
 -4.0006858e-01
 -2.5706971e-01
 -1.0502594e-01
 -8.7864988e-02
 -1.8140778e-01
 -1.9960114e-01
  2.3308297e-01
 -4.4630644e-01
  1.7075859e-01
 -1.2520437e-01
  3.6322467e-02
 -1.3350438e+00
 -4.6962953e-01
  4.0088892e-01
 -1.3725276e-02
 -5.6524023e-02
  4.8602638e-01
 -3.4550634e-01
  3.1273088e-01
  2.6222029e-01
  8.1895702e-03
 -2.1373878e+00
  1.1784010e+00
 -5.4124761e-01
 -5.7283747e-01
  3.3281246e-01
  1.3256188e-01
  3.4905502e-01
  2.9025394e-01
 -6.2640257e-02
 -4.9321514e-01
  8.8574338e-01
 -6.2772965e-01
 -1.3461743e-01
  6.6021365e-01
 -9.9639602e-02
 -1.3581488e-01
  6.5295076e-01
  1.4541566e-01
 -1.5761668e-03
  4.1554022e-01
 -8.0998546e-01
  1.6396005e-01
 -1.9546226e-01
  1.1019974e-01
  3.3060279e-01
 -6.9276470e-01
  1.7648496e-01
 -8.5186124e-01
  1.5387101e+00
  1.6005680e-01
 -3.9155969e-01
 -6.9774991e-01
 -3.9463052e-01
 -5.4490769e-01
  9.2105478e-01
  3.2197809e-01
  1.7547788e-01
 -3.3920160e-01
  1.5835568e+00
 -1.5627450e+00
  5.5223429e-01
 -1.2115056e-01
  3.7653407e-01
 -2.1508436e-01
  4.4159770e-02
  4.1794052e+00
  2.8677620e-02
  2.5149292e-01
 -3.2629010e-01
 -5.2915573e-01
  1.7537797e-02
  2.9590803e-01
  7.1902394e-01
 -7.8499965e-02
 -1.0639735e-01
  1.3661883e+00
 -6.3836575e-01
 -3.3367944e-01
 -2.4775894e+00
 -9.2126942e-01
 -1.7944679e-01
  1.0656822e-01
  5.9345192e-01
  5.2560973e-01
 -3.0005479e-01
 -7.2300863e-01
  1.9570793e-01
  2.1651614e+00
  1.3696774e+00
  4.2868930e-01
 -5.4927021e-01
 -1.1346744e+00
 -5.1750314e-01
 -5.5378449e-01
 -2.5540817e+00
 -1.3426878e-02
 -4.1433271e-02
 -5.8197969e-01
  2.9732997e-02
  1.8204479e-01
  4.3946961e-01
 -2.1594599e-01
 -2.6059914e-01
  3.4288171e-01
  1.0984968e-01
  3.0944201e-01
  7.4074203e-01
  7.5381468e-03
  3.4889048e-01
  5.6245106e-01
  1.0675485e+00
 -4.2175183e-01
 -5.1731461e-01
  7.6904857e-01
 -8.2969785e-01
  7.0724583e-01
  3.3575553e-01
 -4.7969621e-01
 -9.9659944e-01
  5.8859402e-01
 -4.7278112e-01
 -6.1657906e-01
  3.0799824e-01
  9.7921737e-02
 -2.0451339e-01
  1.3705757e-02
  3.9686462e-01
 -7.3846644e-01
  5.7423341e-01
 -6.9471794e-01
 -1.4927750e+00
  2.0522246e-01
  2.8376666e-01
  2.8199801e+00
 -1.3480571e-01
 -1.2198119e+00
  7.9257298e-01
 -4.3236670e-01
 -3.4638861e-01
 -1.2826204e+00
 -2.9535639e-01
  2.7873433e-01
  3.5893750e-01
 -7.4552625e-01
 -9.5015037e-01
 -5.3498141e-02
 -4.6753180e-01
 -4.8342004e-01
 -6.8969368e-03
  1.8723553e+00
  6.0664922e-01
 -3.3982956e-01
 -1.4962994e+00
  8.1730705e-01
  7.7033120e-01
  5.5054438e-01
  4.9917966e-01
  7.1155500e-01
 -4.2424923e-01
 -5.4044658e-01
 -1.0308287e+00
  2.6643187e-01
 -5.5900633e-01
  1.8815124e-01
  4.1274767e-02
  5.5278140e-01
  2.5980073e-01
 -3.8565972e-01
 -1.5081558e+00
 -9.9250175e-02
  1.5820226e-01
 -5.8915216e-02
 -3.8503578e-01
 -2.1903655e-01
  1.9756343e-02
  1.2944540e-01
 -6.6565257e-01
 -1.8804899e+00
  2.8479221e-01
  6.7035891e-02
  4.5768455e-01
 -3.4583324e-01
 -4.2109004e-01
 -4.1440409e-01
  1.8593599e-01
 -3.8503176e-01
  2.9234532e-02
 -5.2194041e-01
  3.2191515e-01
  3.5169560e-01
 -7.2211504e-01
  7.1903318e-01
  5.9950519e-01
 -3.9184523e-01
  1.3870689e-01
  5.5279911e-01
 -6.3627809e-01
  5.4425770e-01
  6.7192346e-01
 -2.8797009e+00
  1.3095734e-01
  6.3538593e-01
  8.9265323e-01
 -3.1302994e-01
  2.3244284e-01
 -1.2596440e-01
  1.3158247e-01
 -5.6874639e-01
 -2.0554440e-01
  1.5405431e+00
 -7.0245437e-02
  1.6626829e+00
 -1.7678034e+00
 -1.2321125e+00
 -5.2058440e-01
 -4.1950760e+00
  2.1294188e-01
  1.1276694e-01
 -1.4336407e-01
  2.2999750e-02
  1.3842252e-01
  8.6452782e-01
  1.1925283e-01
 -9.3246460e-01
  2.9459438e-01
 -2.2856371e-01
  9.1097134e-01
  4.7126901e-01
  1.1030699e+00
 -8.4499127e-01
 -6.1692804e-02
  2.2586644e-01
 -2.6759359e-01
  1.1896435e+00
 -3.8015166e-01
 -1.0662996e+00
  4.3683697e-02
 -3.5051975e-01
 -4.1049445e-01
 -1.0872221e+00
  6.8859357e-01
  1.7818508e-01
 -2.5118074e-01
  3.1818616e-01
  1.4604286e+00
  6.5493959e-01
 -2.4134243e-01
 -6.5547013e-01
 -4.9596369e-02
 -3.8157821e-02
  3.3207545e-01
  1.0510275e+00
 -1.2095202e+00
  2.7097076e-01
 -6.0668480e-01
  6.7663711e-01
  1.3844184e+00
  2.1796386e-01
  4.6437496e-01
  1.7545921e-01
 -1.6841133e-01
 -1.7234202e-01
  1.0078470e+00
  8.4159750e-01
 -7.9130131e-01
  7.3863685e-01
  8.9160942e-02
  3.1196758e-02
  4.5508331e-01
 -4.3139243e-01
  4.7709447e-01
 -1.7169206e-01
  1.6122007e-01
 -8.0559117e-01
 -3.5406414e-01
 -4.7325823e-02
 -1.1042342e+00
 -3.3927518e-01
 -2.5276861e-01
 -2.3561254e-01
 -2.0688280e-01
  1.4945008e-01
 -2.8298140e-01
 -8.5076582e-01
  6.9841796e-01
  3.0790779e-01
  1.0632931e-01
 -2.2297111e-01
  4.0346190e-01
  8.1669444e-01
 -1.6978292e-03
 -4.0749913e-01
  8.4356926e-02
  1.2862056e+00
 -4.7617989e+00
  2.4164061e-01
 -5.8497065e-01
  1.5338315e+00
 -2.9261451e+00
  6.1257880e-02
  1.0939991e-01
  4.2091331e-01
  9.7072810e-01
  3.0941738e-02
 -1.9206822e-01
  3.1166768e-01
 -2.8844333e+00
 -5.7595980e-01
  2.6356990e-02
  1.3725150e+00
  2.6869922e+00
  5.7460342e-02
 -9.0830094e-01
 -1.0041691e-01
 -1.5616341e-02
  1.0045493e+00
  4.0702205e+00
 -5.1198238e-01
  7.5052001e-02
 -1.4351457e-02
 -2.0194219e-01
  1.1652387e+00
 -1.1864442e+00
  2.9111197e+00
 -3.6044922e-01
  3.0390251e-01
  2.6922244e-01
  1.6424881e+00
 -3.1854033e-01
  1.2009774e-01
 -4.9969885e-01
  2.4571782e-02
 -7.5184205e-03
  1.7065920e+00
 -5.2277309e-01
  2.3700731e+00
  2.0250781e+00
  1.5977953e-02
 -1.3777194e+00
 -3.4784654e-01
  7.6506808e-02
  8.2030892e-01
  2.6760638e-01
  1.2257261e-01
 -6.0487967e-02
  1.2486429e+00
 -3.2948208e-01
  4.9377888e-02
 -1.2413490e-01
  6.1914390e-01
  9.1977638e-01
  6.8787098e-01
  2.8471532e-01
  2.2652173e+00
  8.9910817e-01
  7.6364350e-01
 -1.4013138e-01
  2.5035077e-01
  3.2397768e-01
 -3.6910155e-01
  2.4368422e-01
 -2.3791644e-01
 -2.2133365e-01
 -6.8215770e-01
  4.0313286e-01
 -8.3367938e-01
  1.1822184e+00
 -1.2130149e-01
  9.5655942e-01
  8.7053426e-02
 -1.0858867e+00
 -6.0128003e-01
  3.5172036e-01
  3.0889151e-01
 -1.0277617e+00
 -2.1485963e-01
 -1.1390872e+00
  8.6204529e-01
 -3.0084582e-02
 -1.5841988e-01
 -1.8991485e+00
 -6.6116214e-02
 -2.5798696e-01
  2.8282225e-01
  1.1190000e+00
 -3.1905302e-01
 -2.4545281e+00
  1.0797163e+00
 -4.9492550e-01
  1.1329915e-01
  1.7681049e-01
 -9.1859996e-01
  5.0441438e-01
 -6.2967896e-01
 -4.4589633e-01
  5.4529995e-01
  5.4783505e-01
 -5.1874965e-01
  1.1351663e+00
  1.8724260e-01
 -1.0888119e+00
 -7.8488976e-01
 -7.2088875e-03
  4.0248245e-01
  9.2383228e-02
 -2.1093170e-01
 -4.9035093e-01
 -7.3653817e-01
  1.4408571e-01
 -1.9295896e+00
  7.3440045e-01
  4.7118556e-01
  2.1814699e-01
  6.0038280e-02
  6.3048416e-01
 -4.5644432e-01
 -2.8673342e-01
 -1.8927336e-01
 -4.6266295e-02
 -4.2500731e-01
  4.9245667e-02
  1.1374334e+00
 -1.0433558e+00
 -1.8281658e-01
  4.9173862e-02
  1.4688772e-01
 -1.4575942e-01
 -6.7783582e-01
  1.9566560e+00
 -8.4323943e-01
 -2.0092316e-01
  7.1171349e-01
  2.2681253e-01
  5.6196976e-01
  9.6980041e-01
 -9.2263877e-01
  4.0468684e-01
  1.0597988e+00
  1.3651974e+00
  1.8715814e-01
  8.8971421e-02
 -1.1059376e+00
  9.7336864e-01
 -1.1413570e-01
 -1.4894876e-01
  5.2744681e-01
 -1.3538291e+00
  7.6853341e-01
  4.1492754e-01
  7.9638809e-01
  1.4265560e-01
 -7.6634467e-02
 -6.9130182e-01
  4.0848216e-01
 -9.0281928e-01
  5.6495816e-01
  1.4287019e-01
  1.8854908e+00
 -6.3956398e-01
 -9.2260689e-01
  5.0796360e-02
  1.1523317e+00
 -1.0756193e+00
 -1.0600889e+00
 -1.4550313e+00
  1.5811688e+00
 -2.4711819e-01
  1.6634260e-01
  1.7579116e-01
 -1.4845584e-01
 -1.1853976e+00
 -8.4185874e-01
 -6.2830609e-01
 -2.7868852e-01
 -3.3686686e-02
 -7.1224988e-01
  3.4547992e-02
 -7.5702406e-02
 -1.6198704e-01
 -9.9979120e-01
 -4.5771904e-02
 -3.3969045e-01
  1.9796189e-02
  8.4228531e-02
 -1.4329849e-01
  8.7984577e-02
 -7.3128676e-01
 -1.0704082e-02
 -1.4356760e+00
  2.9998514e-01
  1.9808395e-01
  1.9256386e-01
 -3.5413560e-01
 -2.1578230e-01
 -4.4290535e-02
  5.9713844e-02
 -3.2222715e-01
 -1.1880682e+00
 -3.2006991e-01
  1.8390243e+00
  6.8860728e-01
  1.3125765e+00
 -3.0422226e-01
  4.0291727e-01
  5.6394136e-01
 -5.0086510e-01
  1.0260760e-01
  5.3402703e-02
  1.1800228e-01
  1.2839410e-01
  1.0005498e-01
 -2.0621171e+00
 -2.4802899e-01
 -4.6041384e-02
  3.8620766e-02
  1.4519659e-01
 -2.9442710e-01
 -5.6400210e-01
  1.8943106e-01
 -1.1145664e-01
  6.5671760e-01
  7.1977437e-01
 -2.1279502e-01
  1.3241978e+00
  6.1149931e-01
 -2.7022290e+00
  4.2511120e-01
 -8.5133058e-01
  4.1995432e-02
 -1.0610963e+00
 -1.5742550e+00
 -6.5412886e-02
 -5.6989297e-02
 -1.2289668e+00
 -1.6284351e-01
 -4.7869161e-01
 -2.3260479e-01
  4.2918205e-01
 -6.1436892e-02
 -1.8857773e-01
  4.4406652e-01
 -5.2135527e-01
 -2.4292645e+00
  7.6745516e-01
 -5.6657469e-01
  5.1202589e-01
  7.5825520e-02
  3.1947228e-01
 -4.3918902e-01
 -1.9233131e-01
  6.0193133e-01
  5.5545634e-01
 -1.9502915e+00
 -6.2751198e-01
  3.5704008e-01
  1.3905813e+00
  3.0688497e-01
  4.8103833e-01
  6.9900632e-01
  4.6199274e-01
 -7.7751195e-01
  2.9096285e-01
  3.9940670e-01
  9.4366330e-01
 -2.4366049e-01
  2.4305186e-03
  4.8836806e-01
 -2.4157517e-01
 -8.7789446e-01
  1.4670534e-01
 -2.7278057e-01
 -4.2850739e-01
  4.7557369e-01
  3.9850578e-01
 -4.3562898e-01
 -6.1264759e-01
  3.3860141e-01
  6.8600312e-02
  2.8753609e-03
 -9.6598947e-01
  8.8721049e-01
  5.4601985e-01
 -6.5954542e-01
  5.0714374e-01
  3.9546587e-02
  7.7167712e-02
 -1.7680587e+00
  1.7565297e-02
 -1.2238376e+00
 -5.3157425e-01
  1.0074813e+00
 -7.3147380e-01
 -1.2412547e+00
  1.6440099e-01
  3.0628231e-01
  5.2986020e-01
  3.0374843e-01
 -6.6221900e-02
  9.3037084e-02
 -1.3550428e-01
 -2.6057321e-01
 -8.0534823e-02
 -1.7078149e+00
  3.8503805e-01
 -1.4219511e-01
 -1.3905007e-01
 -7.0608914e-02
 -4.0970799e-03
  5.1989865e-01
  7.1283704e-01
 -4.1728246e-01
 -5.7308775e-01
  2.7390662e-01
 -9.2738795e-01
  5.3255852e-02
 -1.2239869e-01
  2.1084805e-03
 -8.4447455e-01
  6.6441911e-01
  5.1021510e-01
 -5.2659750e-01
  8.2480538e-01
 -9.8941319e-02
  1.5313968e-01
  5.1327997e-01
